digraph Tree {
node [shape=box, style="filled", color="black"] ;
0 [label="relationship <= 0.5\ngini = 0.364\nsamples = 26048\nvalue = [19827, 6221]", fillcolor="#eda977"] ;
1 [label="education-num <= 11.5\ngini = 0.494\nsamples = 10532\nvalue = [5830, 4702]", fillcolor="#fae7d9"] ;
0 -> 1 [labeldistance=2.5, labelangle=45, headlabel="True"] ;
2 [label="capital-gain <= 78.0\ngini = 0.442\nsamples = 7364\nvalue = [4941, 2423]", fillcolor="#f2bf9a"] ;
1 -> 2 ;
3 [label="education-num <= 6.5\ngini = 0.416\nsamples = 7002\nvalue = [4933, 2069]", fillcolor="#f0b68c"] ;
2 -> 3 ;
4 [label="capital-loss <= 40.0\ngini = 0.168\nsamples = 1104\nvalue = [1002, 102]", fillcolor="#e88e4d"] ;
3 -> 4 ;
5 [label="age <= 19.5\ngini = 0.153\nsamples = 1079\nvalue = [989, 90]", fillcolor="#e78c4b"] ;
4 -> 5 ;
6 [label="hours-per-week <= 43.0\ngini = 0.04\nsamples = 294\nvalue = [288, 6]", fillcolor="#e6843d"] ;
5 -> 6 ;
7 [label="native-country <= 1.0\ngini = 0.017\nsamples = 230\nvalue = [228, 2]", fillcolor="#e5823b"] ;
6 -> 7 ;
8 [label="fnlwgt <= 4085.5\ngini = 0.32\nsamples = 5\nvalue = [4, 1]", fillcolor="#eca06a"] ;
7 -> 8 ;
9 [label="gini = 0.0\nsamples = 1\nvalue = [0, 1]", fillcolor="#399de5"] ;
8 -> 9 ;
10 [label="gini = 0.0\nsamples = 4\nvalue = [4, 0]", fillcolor="#e58139"] ;
8 -> 10 ;
11 [label="race <= 2.5\ngini = 0.009\nsamples = 225\nvalue = [224, 1]", fillcolor="#e5823a"] ;
7 -> 11 ;
12 [label="occupation <= 4.0\ngini = 0.18\nsamples = 10\nvalue = [9, 1]", fillcolor="#e88f4f"] ;
11 -> 12 ;
13 [label="gini = 0.0\nsamples = 1\nvalue = [0, 1]", fillcolor="#399de5"] ;
12 -> 13 ;
14 [label="gini = 0.0\nsamples = 9\nvalue = [9, 0]", fillcolor="#e58139"] ;
12 -> 14 ;
15 [label="gini = 0.0\nsamples = 215\nvalue = [215, 0]", fillcolor="#e58139"] ;
11 -> 15 ;
16 [label="education-num <= 2.5\ngini = 0.117\nsamples = 64\nvalue = [60, 4]", fillcolor="#e78946"] ;
6 -> 16 ;
17 [label="workclass <= 5.0\ngini = 0.346\nsamples = 9\nvalue = [7, 2]", fillcolor="#eca572"] ;
16 -> 17 ;
18 [label="gini = 0.0\nsamples = 7\nvalue = [7, 0]", fillcolor="#e58139"] ;
17 -> 18 ;
19 [label="gini = 0.0\nsamples = 2\nvalue = [0, 2]", fillcolor="#399de5"] ;
17 -> 19 ;
20 [label="age <= 5.5\ngini = 0.07\nsamples = 55\nvalue = [53, 2]", fillcolor="#e68640"] ;
16 -> 20 ;
21 [label="education-num <= 5.5\ngini = 0.444\nsamples = 3\nvalue = [2, 1]", fillcolor="#f2c09c"] ;
20 -> 21 ;
22 [label="gini = 0.0\nsamples = 2\nvalue = [2, 0]", fillcolor="#e58139"] ;
21 -> 22 ;
23 [label="gini = 0.0\nsamples = 1\nvalue = [0, 1]", fillcolor="#399de5"] ;
21 -> 23 ;
24 [label="education <= 0.5\ngini = 0.038\nsamples = 52\nvalue = [51, 1]", fillcolor="#e6833d"] ;
20 -> 24 ;
25 [label="hours-per-week <= 45.5\ngini = 0.165\nsamples = 11\nvalue = [10, 1]", fillcolor="#e88e4d"] ;
24 -> 25 ;
26 [label="age <= 16.0\ngini = 0.444\nsamples = 3\nvalue = [2, 1]", fillcolor="#f2c09c"] ;
25 -> 26 ;
27 [label="gini = 0.0\nsamples = 2\nvalue = [2, 0]", fillcolor="#e58139"] ;
26 -> 27 ;
28 [label="gini = 0.0\nsamples = 1\nvalue = [0, 1]", fillcolor="#399de5"] ;
26 -> 28 ;
29 [label="gini = 0.0\nsamples = 8\nvalue = [8, 0]", fillcolor="#e58139"] ;
25 -> 29 ;
30 [label="gini = 0.0\nsamples = 41\nvalue = [41, 0]", fillcolor="#e58139"] ;
24 -> 30 ;
31 [label="hours-per-week <= 48.5\ngini = 0.191\nsamples = 785\nvalue = [701, 84]", fillcolor="#e89051"] ;
5 -> 31 ;
32 [label="fnlwgt <= 521.0\ngini = 0.163\nsamples = 650\nvalue = [592, 58]", fillcolor="#e88d4c"] ;
31 -> 32 ;
33 [label="occupation <= 6.0\ngini = 0.473\nsamples = 13\nvalue = [8, 5]", fillcolor="#f5d0b5"] ;
32 -> 33 ;
34 [label="occupation <= 1.5\ngini = 0.245\nsamples = 7\nvalue = [6, 1]", fillcolor="#e9965a"] ;
33 -> 34 ;
35 [label="hours-per-week <= 20.0\ngini = 0.5\nsamples = 2\nvalue = [1, 1]", fillcolor="#ffffff"] ;
34 -> 35 ;
36 [label="gini = 0.0\nsamples = 1\nvalue = [1, 0]", fillcolor="#e58139"] ;
35 -> 36 ;
37 [label="gini = 0.0\nsamples = 1\nvalue = [0, 1]", fillcolor="#399de5"] ;
35 -> 37 ;
38 [label="gini = 0.0\nsamples = 5\nvalue = [5, 0]", fillcolor="#e58139"] ;
34 -> 38 ;
39 [label="education <= 0.5\ngini = 0.444\nsamples = 6\nvalue = [2, 4]", fillcolor="#9ccef2"] ;
33 -> 39 ;
40 [label="age <= 40.5\ngini = 0.444\nsamples = 3\nvalue = [2, 1]", fillcolor="#f2c09c"] ;
39 -> 40 ;
41 [label="gini = 0.0\nsamples = 2\nvalue = [2, 0]", fillcolor="#e58139"] ;
40 -> 41 ;
42 [label="gini = 0.0\nsamples = 1\nvalue = [0, 1]", fillcolor="#399de5"] ;
40 -> 42 ;
43 [label="gini = 0.0\nsamples = 3\nvalue = [0, 3]", fillcolor="#399de5"] ;
39 -> 43 ;
44 [label="education <= 3.5\ngini = 0.153\nsamples = 637\nvalue = [584, 53]", fillcolor="#e78c4b"] ;
32 -> 44 ;
45 [label="age <= 48.5\ngini = 0.224\nsamples = 296\nvalue = [258, 38]", fillcolor="#e99456"] ;
44 -> 45 ;
46 [label="capital-loss <= 8.5\ngini = 0.253\nsamples = 256\nvalue = [218, 38]", fillcolor="#ea975c"] ;
45 -> 46 ;
47 [label="capital-gain <= 46.0\ngini = 0.248\nsamples = 255\nvalue = [218, 37]", fillcolor="#e9965b"] ;
46 -> 47 ;
48 [label="fnlwgt <= 6176.0\ngini = 0.237\nsamples = 248\nvalue = [214, 34]", fillcolor="#e99558"] ;
47 -> 48 ;
49 [label="fnlwgt <= 5724.5\ngini = 0.365\nsamples = 50\nvalue = [38, 12]", fillcolor="#eda978"] ;
48 -> 49 ;
50 [label="age <= 47.5\ngini = 0.33\nsamples = 48\nvalue = [38, 10]", fillcolor="#eca26d"] ;
49 -> 50 ;
51 [label="education <= 0.5\ngini = 0.31\nsamples = 47\nvalue = [38, 9]", fillcolor="#eb9f68"] ;
50 -> 51 ;
52 [label="age <= 42.5\ngini = 0.43\nsamples = 16\nvalue = [11, 5]", fillcolor="#f1ba93"] ;
51 -> 52 ;
53 [label="occupation <= 13.0\ngini = 0.496\nsamples = 11\nvalue = [6, 5]", fillcolor="#fbeade"] ;
52 -> 53 ;
54 [label="age <= 41.5\ngini = 0.48\nsamples = 10\nvalue = [6, 4]", fillcolor="#f6d5bd"] ;
53 -> 54 ;
55 [label="fnlwgt <= 3100.5\ngini = 0.444\nsamples = 9\nvalue = [6, 3]", fillcolor="#f2c09c"] ;
54 -> 55 ;
56 [label="native-country <= 32.5\ngini = 0.444\nsamples = 3\nvalue = [1, 2]", fillcolor="#9ccef2"] ;
55 -> 56 ;
57 [label="gini = 0.0\nsamples = 1\nvalue = [1, 0]", fillcolor="#e58139"] ;
56 -> 57 ;
58 [label="gini = 0.0\nsamples = 2\nvalue = [0, 2]", fillcolor="#399de5"] ;
56 -> 58 ;
59 [label="fnlwgt <= 5535.0\ngini = 0.278\nsamples = 6\nvalue = [5, 1]", fillcolor="#ea9a61"] ;
55 -> 59 ;
60 [label="gini = 0.0\nsamples = 5\nvalue = [5, 0]", fillcolor="#e58139"] ;
59 -> 60 ;
61 [label="gini = 0.0\nsamples = 1\nvalue = [0, 1]", fillcolor="#399de5"] ;
59 -> 61 ;
62 [label="gini = 0.0\nsamples = 1\nvalue = [0, 1]", fillcolor="#399de5"] ;
54 -> 62 ;
63 [label="gini = 0.0\nsamples = 1\nvalue = [0, 1]", fillcolor="#399de5"] ;
53 -> 63 ;
64 [label="gini = 0.0\nsamples = 5\nvalue = [5, 0]", fillcolor="#e58139"] ;
52 -> 64 ;
65 [label="age <= 42.5\ngini = 0.225\nsamples = 31\nvalue = [27, 4]", fillcolor="#e99456"] ;
51 -> 65 ;
66 [label="occupation <= 4.0\ngini = 0.147\nsamples = 25\nvalue = [23, 2]", fillcolor="#e78c4a"] ;
65 -> 66 ;
67 [label="age <= 23.0\ngini = 0.375\nsamples = 8\nvalue = [6, 2]", fillcolor="#eeab7b"] ;
66 -> 67 ;
68 [label="gini = 0.0\nsamples = 1\nvalue = [0, 1]", fillcolor="#399de5"] ;
67 -> 68 ;
69 [label="fnlwgt <= 1450.5\ngini = 0.245\nsamples = 7\nvalue = [6, 1]", fillcolor="#e9965a"] ;
67 -> 69 ;
70 [label="gini = 0.0\nsamples = 1\nvalue = [0, 1]", fillcolor="#399de5"] ;
69 -> 70 ;
71 [label="gini = 0.0\nsamples = 6\nvalue = [6, 0]", fillcolor="#e58139"] ;
69 -> 71 ;
72 [label="gini = 0.0\nsamples = 17\nvalue = [17, 0]", fillcolor="#e58139"] ;
66 -> 72 ;
73 [label="fnlwgt <= 3496.0\ngini = 0.444\nsamples = 6\nvalue = [4, 2]", fillcolor="#f2c09c"] ;
65 -> 73 ;
74 [label="gini = 0.0\nsamples = 2\nvalue = [0, 2]", fillcolor="#399de5"] ;
73 -> 74 ;
75 [label="gini = 0.0\nsamples = 4\nvalue = [4, 0]", fillcolor="#e58139"] ;
73 -> 75 ;
76 [label="gini = 0.0\nsamples = 1\nvalue = [0, 1]", fillcolor="#399de5"] ;
50 -> 76 ;
77 [label="gini = 0.0\nsamples = 2\nvalue = [0, 2]", fillcolor="#399de5"] ;
49 -> 77 ;
78 [label="fnlwgt <= 21359.0\ngini = 0.198\nsamples = 198\nvalue = [176, 22]", fillcolor="#e89152"] ;
48 -> 78 ;
79 [label="hours-per-week <= 44.5\ngini = 0.186\nsamples = 193\nvalue = [173, 20]", fillcolor="#e89050"] ;
78 -> 79 ;
80 [label="education <= 0.5\ngini = 0.174\nsamples = 187\nvalue = [169, 18]", fillcolor="#e88e4e"] ;
79 -> 80 ;
81 [label="occupation <= 9.0\ngini = 0.236\nsamples = 95\nvalue = [82, 13]", fillcolor="#e99558"] ;
80 -> 81 ;
82 [label="fnlwgt <= 13841.5\ngini = 0.163\nsamples = 78\nvalue = [71, 7]", fillcolor="#e88d4d"] ;
81 -> 82 ;
83 [label="fnlwgt <= 13759.0\ngini = 0.222\nsamples = 55\nvalue = [48, 7]", fillcolor="#e99356"] ;
82 -> 83 ;
84 [label="native-country <= 22.0\ngini = 0.198\nsamples = 54\nvalue = [48, 6]", fillcolor="#e89152"] ;
83 -> 84 ;
85 [label="gini = 0.0\nsamples = 1\nvalue = [0, 1]", fillcolor="#399de5"] ;
84 -> 85 ;
86 [label="age <= 21.5\ngini = 0.171\nsamples = 53\nvalue = [48, 5]", fillcolor="#e88e4e"] ;
84 -> 86 ;
87 [label="gini = 0.0\nsamples = 1\nvalue = [0, 1]", fillcolor="#399de5"] ;
86 -> 87 ;
88 [label="age <= 32.0\ngini = 0.142\nsamples = 52\nvalue = [48, 4]", fillcolor="#e78c49"] ;
86 -> 88 ;
89 [label="fnlwgt <= 12295.5\ngini = 0.278\nsamples = 18\nvalue = [15, 3]", fillcolor="#ea9a61"] ;
88 -> 89 ;
90 [label="age <= 29.5\ngini = 0.208\nsamples = 17\nvalue = [15, 2]", fillcolor="#e89253"] ;
89 -> 90 ;
91 [label="gini = 0.0\nsamples = 12\nvalue = [12, 0]", fillcolor="#e58139"] ;
90 -> 91 ;
92 [label="race <= 3.0\ngini = 0.48\nsamples = 5\nvalue = [3, 2]", fillcolor="#f6d5bd"] ;
90 -> 92 ;
93 [label="gini = 0.0\nsamples = 2\nvalue = [2, 0]", fillcolor="#e58139"] ;
92 -> 93 ;
94 [label="occupation <= 3.5\ngini = 0.444\nsamples = 3\nvalue = [1, 2]", fillcolor="#9ccef2"] ;
92 -> 94 ;
95 [label="gini = 0.0\nsamples = 1\nvalue = [1, 0]", fillcolor="#e58139"] ;
94 -> 95 ;
96 [label="gini = 0.0\nsamples = 2\nvalue = [0, 2]", fillcolor="#399de5"] ;
94 -> 96 ;
97 [label="gini = 0.0\nsamples = 1\nvalue = [0, 1]", fillcolor="#399de5"] ;
89 -> 97 ;
98 [label="age <= 40.5\ngini = 0.057\nsamples = 34\nvalue = [33, 1]", fillcolor="#e6853f"] ;
88 -> 98 ;
99 [label="gini = 0.0\nsamples = 21\nvalue = [21, 0]", fillcolor="#e58139"] ;
98 -> 99 ;
100 [label="age <= 41.5\ngini = 0.142\nsamples = 13\nvalue = [12, 1]", fillcolor="#e78c49"] ;
98 -> 100 ;
101 [label="workclass <= 2.5\ngini = 0.5\nsamples = 2\nvalue = [1, 1]", fillcolor="#ffffff"] ;
100 -> 101 ;
102 [label="gini = 0.0\nsamples = 1\nvalue = [1, 0]", fillcolor="#e58139"] ;
101 -> 102 ;
103 [label="gini = 0.0\nsamples = 1\nvalue = [0, 1]", fillcolor="#399de5"] ;
101 -> 103 ;
104 [label="gini = 0.0\nsamples = 11\nvalue = [11, 0]", fillcolor="#e58139"] ;
100 -> 104 ;
105 [label="gini = 0.0\nsamples = 1\nvalue = [0, 1]", fillcolor="#399de5"] ;
83 -> 105 ;
106 [label="gini = 0.0\nsamples = 23\nvalue = [23, 0]", fillcolor="#e58139"] ;
82 -> 106 ;
107 [label="hours-per-week <= 31.5\ngini = 0.457\nsamples = 17\nvalue = [11, 6]", fillcolor="#f3c6a5"] ;
81 -> 107 ;
108 [label="gini = 0.0\nsamples = 2\nvalue = [0, 2]", fillcolor="#399de5"] ;
107 -> 108 ;
109 [label="workclass <= 6.5\ngini = 0.391\nsamples = 15\nvalue = [11, 4]", fillcolor="#eeaf81"] ;
107 -> 109 ;
110 [label="fnlwgt <= 15784.0\ngini = 0.337\nsamples = 14\nvalue = [11, 3]", fillcolor="#eca36f"] ;
109 -> 110 ;
111 [label="gini = 0.0\nsamples = 7\nvalue = [7, 0]", fillcolor="#e58139"] ;
110 -> 111 ;
112 [label="fnlwgt <= 16412.5\ngini = 0.49\nsamples = 7\nvalue = [4, 3]", fillcolor="#f8e0ce"] ;
110 -> 112 ;
113 [label="gini = 0.0\nsamples = 2\nvalue = [0, 2]", fillcolor="#399de5"] ;
112 -> 113 ;
114 [label="age <= 30.0\ngini = 0.32\nsamples = 5\nvalue = [4, 1]", fillcolor="#eca06a"] ;
112 -> 114 ;
115 [label="age <= 28.0\ngini = 0.5\nsamples = 2\nvalue = [1, 1]", fillcolor="#ffffff"] ;
114 -> 115 ;
116 [label="gini = 0.0\nsamples = 1\nvalue = [1, 0]", fillcolor="#e58139"] ;
115 -> 116 ;
117 [label="gini = 0.0\nsamples = 1\nvalue = [0, 1]", fillcolor="#399de5"] ;
115 -> 117 ;
118 [label="gini = 0.0\nsamples = 3\nvalue = [3, 0]", fillcolor="#e58139"] ;
114 -> 118 ;
119 [label="gini = 0.0\nsamples = 1\nvalue = [0, 1]", fillcolor="#399de5"] ;
109 -> 119 ;
120 [label="race <= 2.5\ngini = 0.103\nsamples = 92\nvalue = [87, 5]", fillcolor="#e68844"] ;
80 -> 120 ;
121 [label="age <= 36.5\ngini = 0.375\nsamples = 8\nvalue = [6, 2]", fillcolor="#eeab7b"] ;
120 -> 121 ;
122 [label="gini = 0.0\nsamples = 6\nvalue = [6, 0]", fillcolor="#e58139"] ;
121 -> 122 ;
123 [label="gini = 0.0\nsamples = 2\nvalue = [0, 2]", fillcolor="#399de5"] ;
121 -> 123 ;
124 [label="fnlwgt <= 7001.5\ngini = 0.069\nsamples = 84\nvalue = [81, 3]", fillcolor="#e68640"] ;
120 -> 124 ;
125 [label="fnlwgt <= 6918.5\ngini = 0.444\nsamples = 3\nvalue = [2, 1]", fillcolor="#f2c09c"] ;
124 -> 125 ;
126 [label="gini = 0.0\nsamples = 2\nvalue = [2, 0]", fillcolor="#e58139"] ;
125 -> 126 ;
127 [label="gini = 0.0\nsamples = 1\nvalue = [0, 1]", fillcolor="#399de5"] ;
125 -> 127 ;
128 [label="age <= 27.5\ngini = 0.048\nsamples = 81\nvalue = [79, 2]", fillcolor="#e6843e"] ;
124 -> 128 ;
129 [label="age <= 26.5\ngini = 0.133\nsamples = 28\nvalue = [26, 2]", fillcolor="#e78b48"] ;
128 -> 129 ;
130 [label="education <= 2.0\ngini = 0.071\nsamples = 27\nvalue = [26, 1]", fillcolor="#e68641"] ;
129 -> 130 ;
131 [label="gini = 0.0\nsamples = 21\nvalue = [21, 0]", fillcolor="#e58139"] ;
130 -> 131 ;
132 [label="fnlwgt <= 15532.5\ngini = 0.278\nsamples = 6\nvalue = [5, 1]", fillcolor="#ea9a61"] ;
130 -> 132 ;
133 [label="fnlwgt <= 15196.0\ngini = 0.444\nsamples = 3\nvalue = [2, 1]", fillcolor="#f2c09c"] ;
132 -> 133 ;
134 [label="gini = 0.0\nsamples = 2\nvalue = [2, 0]", fillcolor="#e58139"] ;
133 -> 134 ;
135 [label="gini = 0.0\nsamples = 1\nvalue = [0, 1]", fillcolor="#399de5"] ;
133 -> 135 ;
136 [label="gini = 0.0\nsamples = 3\nvalue = [3, 0]", fillcolor="#e58139"] ;
132 -> 136 ;
137 [label="gini = 0.0\nsamples = 1\nvalue = [0, 1]", fillcolor="#399de5"] ;
129 -> 137 ;
138 [label="gini = 0.0\nsamples = 53\nvalue = [53, 0]", fillcolor="#e58139"] ;
128 -> 138 ;
139 [label="occupation <= 4.5\ngini = 0.444\nsamples = 6\nvalue = [4, 2]", fillcolor="#f2c09c"] ;
79 -> 139 ;
140 [label="gini = 0.0\nsamples = 3\nvalue = [3, 0]", fillcolor="#e58139"] ;
139 -> 140 ;
141 [label="fnlwgt <= 8523.5\ngini = 0.444\nsamples = 3\nvalue = [1, 2]", fillcolor="#9ccef2"] ;
139 -> 141 ;
142 [label="gini = 0.0\nsamples = 1\nvalue = [1, 0]", fillcolor="#e58139"] ;
141 -> 142 ;
143 [label="gini = 0.0\nsamples = 2\nvalue = [0, 2]", fillcolor="#399de5"] ;
141 -> 143 ;
144 [label="fnlwgt <= 21453.0\ngini = 0.48\nsamples = 5\nvalue = [3, 2]", fillcolor="#f6d5bd"] ;
78 -> 144 ;
145 [label="gini = 0.0\nsamples = 2\nvalue = [0, 2]", fillcolor="#399de5"] ;
144 -> 145 ;
146 [label="gini = 0.0\nsamples = 3\nvalue = [3, 0]", fillcolor="#e58139"] ;
144 -> 146 ;
147 [label="fnlwgt <= 10435.5\ngini = 0.49\nsamples = 7\nvalue = [4, 3]", fillcolor="#f8e0ce"] ;
47 -> 147 ;
148 [label="gini = 0.0\nsamples = 3\nvalue = [3, 0]", fillcolor="#e58139"] ;
147 -> 148 ;
149 [label="capital-gain <= 57.5\ngini = 0.375\nsamples = 4\nvalue = [1, 3]", fillcolor="#7bbeee"] ;
147 -> 149 ;
150 [label="gini = 0.0\nsamples = 2\nvalue = [0, 2]", fillcolor="#399de5"] ;
149 -> 150 ;
151 [label="education-num <= 5.5\ngini = 0.5\nsamples = 2\nvalue = [1, 1]", fillcolor="#ffffff"] ;
149 -> 151 ;
152 [label="gini = 0.0\nsamples = 1\nvalue = [1, 0]", fillcolor="#e58139"] ;
151 -> 152 ;
153 [label="gini = 0.0\nsamples = 1\nvalue = [0, 1]", fillcolor="#399de5"] ;
151 -> 153 ;
154 [label="gini = 0.0\nsamples = 1\nvalue = [0, 1]", fillcolor="#399de5"] ;
46 -> 154 ;
155 [label="gini = 0.0\nsamples = 40\nvalue = [40, 0]", fillcolor="#e58139"] ;
45 -> 155 ;
156 [label="workclass <= 4.5\ngini = 0.084\nsamples = 341\nvalue = [326, 15]", fillcolor="#e68742"] ;
44 -> 156 ;
157 [label="age <= 35.5\ngini = 0.062\nsamples = 280\nvalue = [271, 9]", fillcolor="#e68540"] ;
156 -> 157 ;
158 [label="fnlwgt <= 17674.5\ngini = 0.017\nsamples = 117\nvalue = [116, 1]", fillcolor="#e5823b"] ;
157 -> 158 ;
159 [label="gini = 0.0\nsamples = 95\nvalue = [95, 0]", fillcolor="#e58139"] ;
158 -> 159 ;
160 [label="fnlwgt <= 17830.0\ngini = 0.087\nsamples = 22\nvalue = [21, 1]", fillcolor="#e68742"] ;
158 -> 160 ;
161 [label="gini = 0.0\nsamples = 1\nvalue = [0, 1]", fillcolor="#399de5"] ;
160 -> 161 ;
162 [label="gini = 0.0\nsamples = 21\nvalue = [21, 0]", fillcolor="#e58139"] ;
160 -> 162 ;
163 [label="native-country <= 2.5\ngini = 0.093\nsamples = 163\nvalue = [155, 8]", fillcolor="#e68843"] ;
157 -> 163 ;
164 [label="age <= 41.0\ngini = 0.444\nsamples = 3\nvalue = [2, 1]", fillcolor="#f2c09c"] ;
163 -> 164 ;
165 [label="gini = 0.0\nsamples = 2\nvalue = [2, 0]", fillcolor="#e58139"] ;
164 -> 165 ;
166 [label="gini = 0.0\nsamples = 1\nvalue = [0, 1]", fillcolor="#399de5"] ;
164 -> 166 ;
167 [label="age <= 40.5\ngini = 0.084\nsamples = 160\nvalue = [153, 7]", fillcolor="#e68742"] ;
163 -> 167 ;
168 [label="fnlwgt <= 2111.5\ngini = 0.19\nsamples = 47\nvalue = [42, 5]", fillcolor="#e89051"] ;
167 -> 168 ;
169 [label="workclass <= 3.0\ngini = 0.5\nsamples = 2\nvalue = [1, 1]", fillcolor="#ffffff"] ;
168 -> 169 ;
170 [label="gini = 0.0\nsamples = 1\nvalue = [1, 0]", fillcolor="#e58139"] ;
169 -> 170 ;
171 [label="gini = 0.0\nsamples = 1\nvalue = [0, 1]", fillcolor="#399de5"] ;
169 -> 171 ;
172 [label="occupation <= 4.5\ngini = 0.162\nsamples = 45\nvalue = [41, 4]", fillcolor="#e88d4c"] ;
168 -> 172 ;
173 [label="occupation <= 3.5\ngini = 0.308\nsamples = 21\nvalue = [17, 4]", fillcolor="#eb9f68"] ;
172 -> 173 ;
174 [label="age <= 39.5\ngini = 0.105\nsamples = 18\nvalue = [17, 1]", fillcolor="#e78845"] ;
173 -> 174 ;
175 [label="gini = 0.0\nsamples = 16\nvalue = [16, 0]", fillcolor="#e58139"] ;
174 -> 175 ;
176 [label="fnlwgt <= 10922.0\ngini = 0.5\nsamples = 2\nvalue = [1, 1]", fillcolor="#ffffff"] ;
174 -> 176 ;
177 [label="gini = 0.0\nsamples = 1\nvalue = [0, 1]", fillcolor="#399de5"] ;
176 -> 177 ;
178 [label="gini = 0.0\nsamples = 1\nvalue = [1, 0]", fillcolor="#e58139"] ;
176 -> 178 ;
179 [label="gini = 0.0\nsamples = 3\nvalue = [0, 3]", fillcolor="#399de5"] ;
173 -> 179 ;
180 [label="gini = 0.0\nsamples = 24\nvalue = [24, 0]", fillcolor="#e58139"] ;
172 -> 180 ;
181 [label="fnlwgt <= 20465.0\ngini = 0.035\nsamples = 113\nvalue = [111, 2]", fillcolor="#e5833d"] ;
167 -> 181 ;
182 [label="education <= 4.5\ngini = 0.018\nsamples = 111\nvalue = [110, 1]", fillcolor="#e5823b"] ;
181 -> 182 ;
183 [label="age <= 43.5\ngini = 0.091\nsamples = 21\nvalue = [20, 1]", fillcolor="#e68743"] ;
182 -> 183 ;
184 [label="occupation <= 1.5\ngini = 0.278\nsamples = 6\nvalue = [5, 1]", fillcolor="#ea9a61"] ;
183 -> 184 ;
185 [label="gini = 0.0\nsamples = 1\nvalue = [0, 1]", fillcolor="#399de5"] ;
184 -> 185 ;
186 [label="gini = 0.0\nsamples = 5\nvalue = [5, 0]", fillcolor="#e58139"] ;
184 -> 186 ;
187 [label="gini = 0.0\nsamples = 15\nvalue = [15, 0]", fillcolor="#e58139"] ;
183 -> 187 ;
188 [label="gini = 0.0\nsamples = 90\nvalue = [90, 0]", fillcolor="#e58139"] ;
182 -> 188 ;
189 [label="occupation <= 4.0\ngini = 0.5\nsamples = 2\nvalue = [1, 1]", fillcolor="#ffffff"] ;
181 -> 189 ;
190 [label="gini = 0.0\nsamples = 1\nvalue = [1, 0]", fillcolor="#e58139"] ;
189 -> 190 ;
191 [label="gini = 0.0\nsamples = 1\nvalue = [0, 1]", fillcolor="#399de5"] ;
189 -> 191 ;
192 [label="workclass <= 5.5\ngini = 0.177\nsamples = 61\nvalue = [55, 6]", fillcolor="#e88f4f"] ;
156 -> 192 ;
193 [label="education-num <= 3.5\ngini = 0.444\nsamples = 6\nvalue = [4, 2]", fillcolor="#f2c09c"] ;
192 -> 193 ;
194 [label="fnlwgt <= 10810.0\ngini = 0.444\nsamples = 3\nvalue = [1, 2]", fillcolor="#9ccef2"] ;
193 -> 194 ;
195 [label="gini = 0.0\nsamples = 2\nvalue = [0, 2]", fillcolor="#399de5"] ;
194 -> 195 ;
196 [label="gini = 0.0\nsamples = 1\nvalue = [1, 0]", fillcolor="#e58139"] ;
194 -> 196 ;
197 [label="gini = 0.0\nsamples = 3\nvalue = [3, 0]", fillcolor="#e58139"] ;
193 -> 197 ;
198 [label="age <= 24.0\ngini = 0.135\nsamples = 55\nvalue = [51, 4]", fillcolor="#e78b49"] ;
192 -> 198 ;
199 [label="native-country <= 32.5\ngini = 0.48\nsamples = 5\nvalue = [3, 2]", fillcolor="#f6d5bd"] ;
198 -> 199 ;
200 [label="gini = 0.0\nsamples = 2\nvalue = [2, 0]", fillcolor="#e58139"] ;
199 -> 200 ;
201 [label="fnlwgt <= 7020.0\ngini = 0.444\nsamples = 3\nvalue = [1, 2]", fillcolor="#9ccef2"] ;
199 -> 201 ;
202 [label="gini = 0.0\nsamples = 1\nvalue = [1, 0]", fillcolor="#e58139"] ;
201 -> 202 ;
203 [label="gini = 0.0\nsamples = 2\nvalue = [0, 2]", fillcolor="#399de5"] ;
201 -> 203 ;
204 [label="age <= 42.5\ngini = 0.077\nsamples = 50\nvalue = [48, 2]", fillcolor="#e68641"] ;
198 -> 204 ;
205 [label="gini = 0.0\nsamples = 25\nvalue = [25, 0]", fillcolor="#e58139"] ;
204 -> 205 ;
206 [label="fnlwgt <= 16987.0\ngini = 0.147\nsamples = 25\nvalue = [23, 2]", fillcolor="#e78c4a"] ;
204 -> 206 ;
207 [label="age <= 43.5\ngini = 0.083\nsamples = 23\nvalue = [22, 1]", fillcolor="#e68742"] ;
206 -> 207 ;
208 [label="occupation <= 9.5\ngini = 0.5\nsamples = 2\nvalue = [1, 1]", fillcolor="#ffffff"] ;
207 -> 208 ;
209 [label="gini = 0.0\nsamples = 1\nvalue = [1, 0]", fillcolor="#e58139"] ;
208 -> 209 ;
210 [label="gini = 0.0\nsamples = 1\nvalue = [0, 1]", fillcolor="#399de5"] ;
208 -> 210 ;
211 [label="gini = 0.0\nsamples = 21\nvalue = [21, 0]", fillcolor="#e58139"] ;
207 -> 211 ;
212 [label="fnlwgt <= 17442.5\ngini = 0.5\nsamples = 2\nvalue = [1, 1]", fillcolor="#ffffff"] ;
206 -> 212 ;
213 [label="gini = 0.0\nsamples = 1\nvalue = [0, 1]", fillcolor="#399de5"] ;
212 -> 213 ;
214 [label="gini = 0.0\nsamples = 1\nvalue = [1, 0]", fillcolor="#e58139"] ;
212 -> 214 ;
215 [label="education <= 4.5\ngini = 0.311\nsamples = 135\nvalue = [109, 26]", fillcolor="#eb9f68"] ;
31 -> 215 ;
216 [label="fnlwgt <= 20827.0\ngini = 0.219\nsamples = 72\nvalue = [63, 9]", fillcolor="#e99355"] ;
215 -> 216 ;
217 [label="age <= 29.0\ngini = 0.18\nsamples = 70\nvalue = [63, 7]", fillcolor="#e88f4f"] ;
216 -> 217 ;
218 [label="gini = 0.0\nsamples = 27\nvalue = [27, 0]", fillcolor="#e58139"] ;
217 -> 218 ;
219 [label="fnlwgt <= 12464.5\ngini = 0.273\nsamples = 43\nvalue = [36, 7]", fillcolor="#ea9a5f"] ;
217 -> 219 ;
220 [label="fnlwgt <= 5118.5\ngini = 0.375\nsamples = 28\nvalue = [21, 7]", fillcolor="#eeab7b"] ;
219 -> 220 ;
221 [label="gini = 0.0\nsamples = 9\nvalue = [9, 0]", fillcolor="#e58139"] ;
220 -> 221 ;
222 [label="hours-per-week <= 56.0\ngini = 0.465\nsamples = 19\nvalue = [12, 7]", fillcolor="#f4caac"] ;
220 -> 222 ;
223 [label="native-country <= 11.0\ngini = 0.48\nsamples = 10\nvalue = [4, 6]", fillcolor="#bddef6"] ;
222 -> 223 ;
224 [label="gini = 0.0\nsamples = 2\nvalue = [2, 0]", fillcolor="#e58139"] ;
223 -> 224 ;
225 [label="fnlwgt <= 6708.5\ngini = 0.375\nsamples = 8\nvalue = [2, 6]", fillcolor="#7bbeee"] ;
223 -> 225 ;
226 [label="age <= 37.0\ngini = 0.5\nsamples = 4\nvalue = [2, 2]", fillcolor="#ffffff"] ;
225 -> 226 ;
227 [label="gini = 0.0\nsamples = 2\nvalue = [0, 2]", fillcolor="#399de5"] ;
226 -> 227 ;
228 [label="gini = 0.0\nsamples = 2\nvalue = [2, 0]", fillcolor="#e58139"] ;
226 -> 228 ;
229 [label="gini = 0.0\nsamples = 4\nvalue = [0, 4]", fillcolor="#399de5"] ;
225 -> 229 ;
230 [label="occupation <= 13.0\ngini = 0.198\nsamples = 9\nvalue = [8, 1]", fillcolor="#e89152"] ;
222 -> 230 ;
231 [label="gini = 0.0\nsamples = 7\nvalue = [7, 0]", fillcolor="#e58139"] ;
230 -> 231 ;
232 [label="hours-per-week <= 70.0\ngini = 0.5\nsamples = 2\nvalue = [1, 1]", fillcolor="#ffffff"] ;
230 -> 232 ;
233 [label="gini = 0.0\nsamples = 1\nvalue = [0, 1]", fillcolor="#399de5"] ;
232 -> 233 ;
234 [label="gini = 0.0\nsamples = 1\nvalue = [1, 0]", fillcolor="#e58139"] ;
232 -> 234 ;
235 [label="gini = 0.0\nsamples = 15\nvalue = [15, 0]", fillcolor="#e58139"] ;
219 -> 235 ;
236 [label="gini = 0.0\nsamples = 2\nvalue = [0, 2]", fillcolor="#399de5"] ;
216 -> 236 ;
237 [label="race <= 3.0\ngini = 0.394\nsamples = 63\nvalue = [46, 17]", fillcolor="#efb082"] ;
215 -> 237 ;
238 [label="gini = 0.0\nsamples = 2\nvalue = [0, 2]", fillcolor="#399de5"] ;
237 -> 238 ;
239 [label="capital-gain <= 66.5\ngini = 0.371\nsamples = 61\nvalue = [46, 15]", fillcolor="#edaa7a"] ;
237 -> 239 ;
240 [label="native-country <= 35.5\ngini = 0.358\nsamples = 60\nvalue = [46, 14]", fillcolor="#eda775"] ;
239 -> 240 ;
241 [label="gini = 0.0\nsamples = 8\nvalue = [8, 0]", fillcolor="#e58139"] ;
240 -> 241 ;
242 [label="age <= 31.5\ngini = 0.393\nsamples = 52\nvalue = [38, 14]", fillcolor="#efaf82"] ;
240 -> 242 ;
243 [label="fnlwgt <= 1806.5\ngini = 0.496\nsamples = 11\nvalue = [5, 6]", fillcolor="#deeffb"] ;
242 -> 243 ;
244 [label="gini = 0.0\nsamples = 2\nvalue = [2, 0]", fillcolor="#e58139"] ;
243 -> 244 ;
245 [label="fnlwgt <= 11055.0\ngini = 0.444\nsamples = 9\nvalue = [3, 6]", fillcolor="#9ccef2"] ;
243 -> 245 ;
246 [label="gini = 0.0\nsamples = 5\nvalue = [0, 5]", fillcolor="#399de5"] ;
245 -> 246 ;
247 [label="fnlwgt <= 14443.0\ngini = 0.375\nsamples = 4\nvalue = [3, 1]", fillcolor="#eeab7b"] ;
245 -> 247 ;
248 [label="gini = 0.0\nsamples = 3\nvalue = [3, 0]", fillcolor="#e58139"] ;
247 -> 248 ;
249 [label="gini = 0.0\nsamples = 1\nvalue = [0, 1]", fillcolor="#399de5"] ;
247 -> 249 ;
250 [label="hours-per-week <= 63.5\ngini = 0.314\nsamples = 41\nvalue = [33, 8]", fillcolor="#eba069"] ;
242 -> 250 ;
251 [label="hours-per-week <= 56.0\ngini = 0.375\nsamples = 32\nvalue = [24, 8]", fillcolor="#eeab7b"] ;
250 -> 251 ;
252 [label="education <= 5.5\ngini = 0.236\nsamples = 22\nvalue = [19, 3]", fillcolor="#e99558"] ;
251 -> 252 ;
253 [label="fnlwgt <= 1187.0\ngini = 0.117\nsamples = 16\nvalue = [15, 1]", fillcolor="#e78946"] ;
252 -> 253 ;
254 [label="age <= 42.5\ngini = 0.5\nsamples = 2\nvalue = [1, 1]", fillcolor="#ffffff"] ;
253 -> 254 ;
255 [label="gini = 0.0\nsamples = 1\nvalue = [0, 1]", fillcolor="#399de5"] ;
254 -> 255 ;
256 [label="gini = 0.0\nsamples = 1\nvalue = [1, 0]", fillcolor="#e58139"] ;
254 -> 256 ;
257 [label="gini = 0.0\nsamples = 14\nvalue = [14, 0]", fillcolor="#e58139"] ;
253 -> 257 ;
258 [label="fnlwgt <= 11555.0\ngini = 0.444\nsamples = 6\nvalue = [4, 2]", fillcolor="#f2c09c"] ;
252 -> 258 ;
259 [label="gini = 0.0\nsamples = 3\nvalue = [3, 0]", fillcolor="#e58139"] ;
258 -> 259 ;
260 [label="workclass <= 2.0\ngini = 0.444\nsamples = 3\nvalue = [1, 2]", fillcolor="#9ccef2"] ;
258 -> 260 ;
261 [label="gini = 0.0\nsamples = 1\nvalue = [1, 0]", fillcolor="#e58139"] ;
260 -> 261 ;
262 [label="gini = 0.0\nsamples = 2\nvalue = [0, 2]", fillcolor="#399de5"] ;
260 -> 262 ;
263 [label="occupation <= 13.0\ngini = 0.5\nsamples = 10\nvalue = [5, 5]", fillcolor="#ffffff"] ;
251 -> 263 ;
264 [label="age <= 43.5\ngini = 0.408\nsamples = 7\nvalue = [5, 2]", fillcolor="#efb388"] ;
263 -> 264 ;
265 [label="gini = 0.0\nsamples = 4\nvalue = [4, 0]", fillcolor="#e58139"] ;
264 -> 265 ;
266 [label="workclass <= 3.0\ngini = 0.444\nsamples = 3\nvalue = [1, 2]", fillcolor="#9ccef2"] ;
264 -> 266 ;
267 [label="gini = 0.0\nsamples = 1\nvalue = [1, 0]", fillcolor="#e58139"] ;
266 -> 267 ;
268 [label="gini = 0.0\nsamples = 2\nvalue = [0, 2]", fillcolor="#399de5"] ;
266 -> 268 ;
269 [label="gini = 0.0\nsamples = 3\nvalue = [0, 3]", fillcolor="#399de5"] ;
263 -> 269 ;
270 [label="gini = 0.0\nsamples = 9\nvalue = [9, 0]", fillcolor="#e58139"] ;
250 -> 270 ;
271 [label="gini = 0.0\nsamples = 1\nvalue = [0, 1]", fillcolor="#399de5"] ;
239 -> 271 ;
272 [label="capital-loss <= 51.5\ngini = 0.499\nsamples = 25\nvalue = [13, 12]", fillcolor="#fdf5f0"] ;
4 -> 272 ;
273 [label="race <= 1.0\ngini = 0.142\nsamples = 13\nvalue = [1, 12]", fillcolor="#49a5e7"] ;
272 -> 273 ;
274 [label="gini = 0.0\nsamples = 1\nvalue = [1, 0]", fillcolor="#e58139"] ;
273 -> 274 ;
275 [label="gini = 0.0\nsamples = 12\nvalue = [0, 12]", fillcolor="#399de5"] ;
273 -> 275 ;
276 [label="gini = 0.0\nsamples = 12\nvalue = [12, 0]", fillcolor="#e58139"] ;
272 -> 276 ;
277 [label="capital-loss <= 39.5\ngini = 0.445\nsamples = 5898\nvalue = [3931, 1967]", fillcolor="#f2c09c"] ;
3 -> 277 ;
278 [label="age <= 18.5\ngini = 0.431\nsamples = 5647\nvalue = [3869, 1778]", fillcolor="#f1bb94"] ;
277 -> 278 ;
279 [label="age <= 12.5\ngini = 0.315\nsamples = 1835\nvalue = [1476, 359]", fillcolor="#eba069"] ;
278 -> 279 ;
280 [label="age <= 8.5\ngini = 0.234\nsamples = 770\nvalue = [666, 104]", fillcolor="#e99558"] ;
279 -> 280 ;
281 [label="hours-per-week <= 46.0\ngini = 0.137\nsamples = 271\nvalue = [251, 20]", fillcolor="#e78b49"] ;
280 -> 281 ;
282 [label="capital-gain <= 64.5\ngini = 0.071\nsamples = 216\nvalue = [208, 8]", fillcolor="#e68641"] ;
281 -> 282 ;
283 [label="fnlwgt <= 235.5\ngini = 0.063\nsamples = 215\nvalue = [208, 7]", fillcolor="#e68540"] ;
282 -> 283 ;
284 [label="age <= 7.0\ngini = 0.5\nsamples = 2\nvalue = [1, 1]", fillcolor="#ffffff"] ;
283 -> 284 ;
285 [label="gini = 0.0\nsamples = 1\nvalue = [1, 0]", fillcolor="#e58139"] ;
284 -> 285 ;
286 [label="gini = 0.0\nsamples = 1\nvalue = [0, 1]", fillcolor="#399de5"] ;
284 -> 286 ;
287 [label="age <= 7.5\ngini = 0.055\nsamples = 213\nvalue = [207, 6]", fillcolor="#e6853f"] ;
283 -> 287 ;
288 [label="occupation <= 2.0\ngini = 0.013\nsamples = 148\nvalue = [147, 1]", fillcolor="#e5823a"] ;
287 -> 288 ;
289 [label="fnlwgt <= 20291.5\ngini = 0.153\nsamples = 12\nvalue = [11, 1]", fillcolor="#e78c4b"] ;
288 -> 289 ;
290 [label="gini = 0.0\nsamples = 11\nvalue = [11, 0]", fillcolor="#e58139"] ;
289 -> 290 ;
291 [label="gini = 0.0\nsamples = 1\nvalue = [0, 1]", fillcolor="#399de5"] ;
289 -> 291 ;
292 [label="gini = 0.0\nsamples = 136\nvalue = [136, 0]", fillcolor="#e58139"] ;
288 -> 292 ;
293 [label="education-num <= 7.5\ngini = 0.142\nsamples = 65\nvalue = [60, 5]", fillcolor="#e78c49"] ;
287 -> 293 ;
294 [label="fnlwgt <= 11055.5\ngini = 0.5\nsamples = 2\nvalue = [1, 1]", fillcolor="#ffffff"] ;
293 -> 294 ;
295 [label="gini = 0.0\nsamples = 1\nvalue = [0, 1]", fillcolor="#399de5"] ;
294 -> 295 ;
296 [label="gini = 0.0\nsamples = 1\nvalue = [1, 0]", fillcolor="#e58139"] ;
294 -> 296 ;
297 [label="occupation <= 13.5\ngini = 0.119\nsamples = 63\nvalue = [59, 4]", fillcolor="#e78a46"] ;
293 -> 297 ;
298 [label="workclass <= 3.0\ngini = 0.073\nsamples = 53\nvalue = [51, 2]", fillcolor="#e68641"] ;
297 -> 298 ;
299 [label="fnlwgt <= 16809.5\ngini = 0.375\nsamples = 4\nvalue = [3, 1]", fillcolor="#eeab7b"] ;
298 -> 299 ;
300 [label="gini = 0.0\nsamples = 3\nvalue = [3, 0]", fillcolor="#e58139"] ;
299 -> 300 ;
301 [label="gini = 0.0\nsamples = 1\nvalue = [0, 1]", fillcolor="#399de5"] ;
299 -> 301 ;
302 [label="occupation <= 3.5\ngini = 0.04\nsamples = 49\nvalue = [48, 1]", fillcolor="#e6843d"] ;
298 -> 302 ;
303 [label="fnlwgt <= 10421.5\ngini = 0.117\nsamples = 16\nvalue = [15, 1]", fillcolor="#e78946"] ;
302 -> 303 ;
304 [label="fnlwgt <= 7776.0\ngini = 0.32\nsamples = 5\nvalue = [4, 1]", fillcolor="#eca06a"] ;
303 -> 304 ;
305 [label="gini = 0.0\nsamples = 4\nvalue = [4, 0]", fillcolor="#e58139"] ;
304 -> 305 ;
306 [label="gini = 0.0\nsamples = 1\nvalue = [0, 1]", fillcolor="#399de5"] ;
304 -> 306 ;
307 [label="gini = 0.0\nsamples = 11\nvalue = [11, 0]", fillcolor="#e58139"] ;
303 -> 307 ;
308 [label="gini = 0.0\nsamples = 33\nvalue = [33, 0]", fillcolor="#e58139"] ;
302 -> 308 ;
309 [label="fnlwgt <= 8018.0\ngini = 0.32\nsamples = 10\nvalue = [8, 2]", fillcolor="#eca06a"] ;
297 -> 309 ;
310 [label="fnlwgt <= 2302.5\ngini = 0.5\nsamples = 4\nvalue = [2, 2]", fillcolor="#ffffff"] ;
309 -> 310 ;
311 [label="gini = 0.0\nsamples = 2\nvalue = [2, 0]", fillcolor="#e58139"] ;
310 -> 311 ;
312 [label="gini = 0.0\nsamples = 2\nvalue = [0, 2]", fillcolor="#399de5"] ;
310 -> 312 ;
313 [label="gini = 0.0\nsamples = 6\nvalue = [6, 0]", fillcolor="#e58139"] ;
309 -> 313 ;
314 [label="gini = 0.0\nsamples = 1\nvalue = [0, 1]", fillcolor="#399de5"] ;
282 -> 314 ;
315 [label="occupation <= 12.5\ngini = 0.341\nsamples = 55\nvalue = [43, 12]", fillcolor="#eca470"] ;
281 -> 315 ;
316 [label="workclass <= 3.0\ngini = 0.236\nsamples = 44\nvalue = [38, 6]", fillcolor="#e99558"] ;
315 -> 316 ;
317 [label="gini = 0.0\nsamples = 1\nvalue = [0, 1]", fillcolor="#399de5"] ;
316 -> 317 ;
318 [label="occupation <= 4.5\ngini = 0.206\nsamples = 43\nvalue = [38, 5]", fillcolor="#e89253"] ;
316 -> 318 ;
319 [label="fnlwgt <= 17524.5\ngini = 0.401\nsamples = 18\nvalue = [13, 5]", fillcolor="#efb185"] ;
318 -> 319 ;
320 [label="workclass <= 4.5\ngini = 0.486\nsamples = 12\nvalue = [7, 5]", fillcolor="#f8dbc6"] ;
319 -> 320 ;
321 [label="hours-per-week <= 51.5\ngini = 0.42\nsamples = 10\nvalue = [7, 3]", fillcolor="#f0b78e"] ;
320 -> 321 ;
322 [label="gini = 0.0\nsamples = 4\nvalue = [4, 0]", fillcolor="#e58139"] ;
321 -> 322 ;
323 [label="education-num <= 8.5\ngini = 0.5\nsamples = 6\nvalue = [3, 3]", fillcolor="#ffffff"] ;
321 -> 323 ;
324 [label="gini = 0.0\nsamples = 2\nvalue = [0, 2]", fillcolor="#399de5"] ;
323 -> 324 ;
325 [label="age <= 6.5\ngini = 0.375\nsamples = 4\nvalue = [3, 1]", fillcolor="#eeab7b"] ;
323 -> 325 ;
326 [label="gini = 0.0\nsamples = 1\nvalue = [0, 1]", fillcolor="#399de5"] ;
325 -> 326 ;
327 [label="gini = 0.0\nsamples = 3\nvalue = [3, 0]", fillcolor="#e58139"] ;
325 -> 327 ;
328 [label="gini = 0.0\nsamples = 2\nvalue = [0, 2]", fillcolor="#399de5"] ;
320 -> 328 ;
329 [label="gini = 0.0\nsamples = 6\nvalue = [6, 0]", fillcolor="#e58139"] ;
319 -> 329 ;
330 [label="gini = 0.0\nsamples = 25\nvalue = [25, 0]", fillcolor="#e58139"] ;
318 -> 330 ;
331 [label="hours-per-week <= 54.0\ngini = 0.496\nsamples = 11\nvalue = [5, 6]", fillcolor="#deeffb"] ;
315 -> 331 ;
332 [label="gini = 0.0\nsamples = 4\nvalue = [0, 4]", fillcolor="#399de5"] ;
331 -> 332 ;
333 [label="fnlwgt <= 5531.5\ngini = 0.408\nsamples = 7\nvalue = [5, 2]", fillcolor="#efb388"] ;
331 -> 333 ;
334 [label="education <= 13.0\ngini = 0.444\nsamples = 3\nvalue = [1, 2]", fillcolor="#9ccef2"] ;
333 -> 334 ;
335 [label="gini = 0.0\nsamples = 1\nvalue = [1, 0]", fillcolor="#e58139"] ;
334 -> 335 ;
336 [label="gini = 0.0\nsamples = 2\nvalue = [0, 2]", fillcolor="#399de5"] ;
334 -> 336 ;
337 [label="gini = 0.0\nsamples = 4\nvalue = [4, 0]", fillcolor="#e58139"] ;
333 -> 337 ;
338 [label="fnlwgt <= 14487.0\ngini = 0.28\nsamples = 499\nvalue = [415, 84]", fillcolor="#ea9b61"] ;
280 -> 338 ;
339 [label="hours-per-week <= 38.0\ngini = 0.231\nsamples = 353\nvalue = [306, 47]", fillcolor="#e99457"] ;
338 -> 339 ;
340 [label="gini = 0.0\nsamples = 22\nvalue = [22, 0]", fillcolor="#e58139"] ;
339 -> 340 ;
341 [label="fnlwgt <= 13843.5\ngini = 0.244\nsamples = 331\nvalue = [284, 47]", fillcolor="#e9965a"] ;
339 -> 341 ;
342 [label="fnlwgt <= 13818.0\ngini = 0.256\nsamples = 312\nvalue = [265, 47]", fillcolor="#ea975c"] ;
341 -> 342 ;
343 [label="capital-loss <= 8.5\ngini = 0.252\nsamples = 311\nvalue = [265, 46]", fillcolor="#ea975b"] ;
342 -> 343 ;
344 [label="occupation <= 9.0\ngini = 0.246\nsamples = 306\nvalue = [262, 44]", fillcolor="#e9965a"] ;
343 -> 344 ;
345 [label="marital-status <= 1.5\ngini = 0.214\nsamples = 221\nvalue = [194, 27]", fillcolor="#e99355"] ;
344 -> 345 ;
346 [label="gini = 0.0\nsamples = 1\nvalue = [0, 1]", fillcolor="#399de5"] ;
345 -> 346 ;
347 [label="occupation <= 4.5\ngini = 0.208\nsamples = 220\nvalue = [194, 26]", fillcolor="#e89254"] ;
345 -> 347 ;
348 [label="fnlwgt <= 13336.0\ngini = 0.271\nsamples = 124\nvalue = [104, 20]", fillcolor="#ea995f"] ;
347 -> 348 ;
349 [label="hours-per-week <= 72.0\ngini = 0.248\nsamples = 117\nvalue = [100, 17]", fillcolor="#e9965b"] ;
348 -> 349 ;
350 [label="fnlwgt <= 10093.0\ngini = 0.238\nsamples = 116\nvalue = [100, 16]", fillcolor="#e99559"] ;
349 -> 350 ;
351 [label="fnlwgt <= 9808.5\ngini = 0.278\nsamples = 84\nvalue = [70, 14]", fillcolor="#ea9a61"] ;
350 -> 351 ;
352 [label="age <= 11.5\ngini = 0.264\nsamples = 83\nvalue = [70, 13]", fillcolor="#ea985e"] ;
351 -> 352 ;
353 [label="age <= 10.5\ngini = 0.324\nsamples = 54\nvalue = [43, 11]", fillcolor="#eca16c"] ;
352 -> 353 ;
354 [label="education-num <= 9.5\ngini = 0.239\nsamples = 36\nvalue = [31, 5]", fillcolor="#e99559"] ;
353 -> 354 ;
355 [label="race <= 1.5\ngini = 0.202\nsamples = 35\nvalue = [31, 4]", fillcolor="#e89153"] ;
354 -> 355 ;
356 [label="gini = 0.0\nsamples = 1\nvalue = [0, 1]", fillcolor="#399de5"] ;
355 -> 356 ;
357 [label="hours-per-week <= 40.0\ngini = 0.161\nsamples = 34\nvalue = [31, 3]", fillcolor="#e88d4c"] ;
355 -> 357 ;
358 [label="fnlwgt <= 5449.0\ngini = 0.278\nsamples = 18\nvalue = [15, 3]", fillcolor="#ea9a61"] ;
357 -> 358 ;
359 [label="fnlwgt <= 2547.5\ngini = 0.42\nsamples = 10\nvalue = [7, 3]", fillcolor="#f0b78e"] ;
358 -> 359 ;
360 [label="gini = 0.0\nsamples = 4\nvalue = [4, 0]", fillcolor="#e58139"] ;
359 -> 360 ;
361 [label="fnlwgt <= 3451.5\ngini = 0.5\nsamples = 6\nvalue = [3, 3]", fillcolor="#ffffff"] ;
359 -> 361 ;
362 [label="gini = 0.0\nsamples = 1\nvalue = [0, 1]", fillcolor="#399de5"] ;
361 -> 362 ;
363 [label="fnlwgt <= 4480.5\ngini = 0.48\nsamples = 5\nvalue = [3, 2]", fillcolor="#f6d5bd"] ;
361 -> 363 ;
364 [label="gini = 0.0\nsamples = 2\nvalue = [2, 0]", fillcolor="#e58139"] ;
363 -> 364 ;
365 [label="age <= 9.5\ngini = 0.444\nsamples = 3\nvalue = [1, 2]", fillcolor="#9ccef2"] ;
363 -> 365 ;
366 [label="gini = 0.0\nsamples = 2\nvalue = [0, 2]", fillcolor="#399de5"] ;
365 -> 366 ;
367 [label="gini = 0.0\nsamples = 1\nvalue = [1, 0]", fillcolor="#e58139"] ;
365 -> 367 ;
368 [label="gini = 0.0\nsamples = 8\nvalue = [8, 0]", fillcolor="#e58139"] ;
358 -> 368 ;
369 [label="gini = 0.0\nsamples = 16\nvalue = [16, 0]", fillcolor="#e58139"] ;
357 -> 369 ;
370 [label="gini = 0.0\nsamples = 1\nvalue = [0, 1]", fillcolor="#399de5"] ;
354 -> 370 ;
371 [label="fnlwgt <= 8154.5\ngini = 0.444\nsamples = 18\nvalue = [12, 6]", fillcolor="#f2c09c"] ;
353 -> 371 ;
372 [label="occupation <= 3.5\ngini = 0.375\nsamples = 16\nvalue = [12, 4]", fillcolor="#eeab7b"] ;
371 -> 372 ;
373 [label="fnlwgt <= 2169.5\ngini = 0.165\nsamples = 11\nvalue = [10, 1]", fillcolor="#e88e4d"] ;
372 -> 373 ;
374 [label="fnlwgt <= 2124.0\ngini = 0.32\nsamples = 5\nvalue = [4, 1]", fillcolor="#eca06a"] ;
373 -> 374 ;
375 [label="gini = 0.0\nsamples = 4\nvalue = [4, 0]", fillcolor="#e58139"] ;
374 -> 375 ;
376 [label="gini = 0.0\nsamples = 1\nvalue = [0, 1]", fillcolor="#399de5"] ;
374 -> 376 ;
377 [label="gini = 0.0\nsamples = 6\nvalue = [6, 0]", fillcolor="#e58139"] ;
373 -> 377 ;
378 [label="fnlwgt <= 6843.0\ngini = 0.48\nsamples = 5\nvalue = [2, 3]", fillcolor="#bddef6"] ;
372 -> 378 ;
379 [label="gini = 0.0\nsamples = 3\nvalue = [0, 3]", fillcolor="#399de5"] ;
378 -> 379 ;
380 [label="gini = 0.0\nsamples = 2\nvalue = [2, 0]", fillcolor="#e58139"] ;
378 -> 380 ;
381 [label="gini = 0.0\nsamples = 2\nvalue = [0, 2]", fillcolor="#399de5"] ;
371 -> 381 ;
382 [label="hours-per-week <= 56.5\ngini = 0.128\nsamples = 29\nvalue = [27, 2]", fillcolor="#e78a48"] ;
352 -> 382 ;
383 [label="fnlwgt <= 7734.0\ngini = 0.071\nsamples = 27\nvalue = [26, 1]", fillcolor="#e68641"] ;
382 -> 383 ;
384 [label="gini = 0.0\nsamples = 23\nvalue = [23, 0]", fillcolor="#e58139"] ;
383 -> 384 ;
385 [label="hours-per-week <= 41.5\ngini = 0.375\nsamples = 4\nvalue = [3, 1]", fillcolor="#eeab7b"] ;
383 -> 385 ;
386 [label="gini = 0.0\nsamples = 3\nvalue = [3, 0]", fillcolor="#e58139"] ;
385 -> 386 ;
387 [label="gini = 0.0\nsamples = 1\nvalue = [0, 1]", fillcolor="#399de5"] ;
385 -> 387 ;
388 [label="education-num <= 9.0\ngini = 0.5\nsamples = 2\nvalue = [1, 1]", fillcolor="#ffffff"] ;
382 -> 388 ;
389 [label="gini = 0.0\nsamples = 1\nvalue = [1, 0]", fillcolor="#e58139"] ;
388 -> 389 ;
390 [label="gini = 0.0\nsamples = 1\nvalue = [0, 1]", fillcolor="#399de5"] ;
388 -> 390 ;
391 [label="gini = 0.0\nsamples = 1\nvalue = [0, 1]", fillcolor="#399de5"] ;
351 -> 391 ;
392 [label="fnlwgt <= 12815.5\ngini = 0.117\nsamples = 32\nvalue = [30, 2]", fillcolor="#e78946"] ;
350 -> 392 ;
393 [label="gini = 0.0\nsamples = 24\nvalue = [24, 0]", fillcolor="#e58139"] ;
392 -> 393 ;
394 [label="fnlwgt <= 12891.0\ngini = 0.375\nsamples = 8\nvalue = [6, 2]", fillcolor="#eeab7b"] ;
392 -> 394 ;
395 [label="gini = 0.0\nsamples = 1\nvalue = [0, 1]", fillcolor="#399de5"] ;
394 -> 395 ;
396 [label="age <= 11.5\ngini = 0.245\nsamples = 7\nvalue = [6, 1]", fillcolor="#e9965a"] ;
394 -> 396 ;
397 [label="gini = 0.0\nsamples = 3\nvalue = [3, 0]", fillcolor="#e58139"] ;
396 -> 397 ;
398 [label="fnlwgt <= 13154.5\ngini = 0.375\nsamples = 4\nvalue = [3, 1]", fillcolor="#eeab7b"] ;
396 -> 398 ;
399 [label="gini = 0.0\nsamples = 2\nvalue = [2, 0]", fillcolor="#e58139"] ;
398 -> 399 ;
400 [label="hours-per-week <= 41.5\ngini = 0.5\nsamples = 2\nvalue = [1, 1]", fillcolor="#ffffff"] ;
398 -> 400 ;
401 [label="gini = 0.0\nsamples = 1\nvalue = [0, 1]", fillcolor="#399de5"] ;
400 -> 401 ;
402 [label="gini = 0.0\nsamples = 1\nvalue = [1, 0]", fillcolor="#e58139"] ;
400 -> 402 ;
403 [label="gini = 0.0\nsamples = 1\nvalue = [0, 1]", fillcolor="#399de5"] ;
349 -> 403 ;
404 [label="fnlwgt <= 13603.5\ngini = 0.49\nsamples = 7\nvalue = [4, 3]", fillcolor="#f8e0ce"] ;
348 -> 404 ;
405 [label="capital-gain <= 32.5\ngini = 0.375\nsamples = 4\nvalue = [1, 3]", fillcolor="#7bbeee"] ;
404 -> 405 ;
406 [label="gini = 0.0\nsamples = 3\nvalue = [0, 3]", fillcolor="#399de5"] ;
405 -> 406 ;
407 [label="gini = 0.0\nsamples = 1\nvalue = [1, 0]", fillcolor="#e58139"] ;
405 -> 407 ;
408 [label="gini = 0.0\nsamples = 3\nvalue = [3, 0]", fillcolor="#e58139"] ;
404 -> 408 ;
409 [label="fnlwgt <= 844.5\ngini = 0.117\nsamples = 96\nvalue = [90, 6]", fillcolor="#e78946"] ;
347 -> 409 ;
410 [label="fnlwgt <= 727.5\ngini = 0.32\nsamples = 5\nvalue = [4, 1]", fillcolor="#eca06a"] ;
409 -> 410 ;
411 [label="gini = 0.0\nsamples = 4\nvalue = [4, 0]", fillcolor="#e58139"] ;
410 -> 411 ;
412 [label="gini = 0.0\nsamples = 1\nvalue = [0, 1]", fillcolor="#399de5"] ;
410 -> 412 ;
413 [label="fnlwgt <= 6431.5\ngini = 0.104\nsamples = 91\nvalue = [86, 5]", fillcolor="#e78845"] ;
409 -> 413 ;
414 [label="gini = 0.0\nsamples = 27\nvalue = [27, 0]", fillcolor="#e58139"] ;
413 -> 414 ;
415 [label="fnlwgt <= 6510.0\ngini = 0.144\nsamples = 64\nvalue = [59, 5]", fillcolor="#e78c4a"] ;
413 -> 415 ;
416 [label="gini = 0.0\nsamples = 1\nvalue = [0, 1]", fillcolor="#399de5"] ;
415 -> 416 ;
417 [label="fnlwgt <= 11915.5\ngini = 0.119\nsamples = 63\nvalue = [59, 4]", fillcolor="#e78a46"] ;
415 -> 417 ;
418 [label="fnlwgt <= 11897.5\ngini = 0.159\nsamples = 46\nvalue = [42, 4]", fillcolor="#e78d4c"] ;
417 -> 418 ;
419 [label="age <= 11.5\ngini = 0.124\nsamples = 45\nvalue = [42, 3]", fillcolor="#e78a47"] ;
418 -> 419 ;
420 [label="fnlwgt <= 11035.0\ngini = 0.062\nsamples = 31\nvalue = [30, 1]", fillcolor="#e68540"] ;
419 -> 420 ;
421 [label="gini = 0.0\nsamples = 26\nvalue = [26, 0]", fillcolor="#e58139"] ;
420 -> 421 ;
422 [label="fnlwgt <= 11332.5\ngini = 0.32\nsamples = 5\nvalue = [4, 1]", fillcolor="#eca06a"] ;
420 -> 422 ;
423 [label="gini = 0.0\nsamples = 1\nvalue = [0, 1]", fillcolor="#399de5"] ;
422 -> 423 ;
424 [label="gini = 0.0\nsamples = 4\nvalue = [4, 0]", fillcolor="#e58139"] ;
422 -> 424 ;
425 [label="race <= 3.0\ngini = 0.245\nsamples = 14\nvalue = [12, 2]", fillcolor="#e9965a"] ;
419 -> 425 ;
426 [label="fnlwgt <= 7591.5\ngini = 0.5\nsamples = 2\nvalue = [1, 1]", fillcolor="#ffffff"] ;
425 -> 426 ;
427 [label="gini = 0.0\nsamples = 1\nvalue = [1, 0]", fillcolor="#e58139"] ;
426 -> 427 ;
428 [label="gini = 0.0\nsamples = 1\nvalue = [0, 1]", fillcolor="#399de5"] ;
426 -> 428 ;
429 [label="fnlwgt <= 9973.5\ngini = 0.153\nsamples = 12\nvalue = [11, 1]", fillcolor="#e78c4b"] ;
425 -> 429 ;
430 [label="gini = 0.0\nsamples = 6\nvalue = [6, 0]", fillcolor="#e58139"] ;
429 -> 430 ;
431 [label="fnlwgt <= 10287.5\ngini = 0.278\nsamples = 6\nvalue = [5, 1]", fillcolor="#ea9a61"] ;
429 -> 431 ;
432 [label="gini = 0.0\nsamples = 1\nvalue = [0, 1]", fillcolor="#399de5"] ;
431 -> 432 ;
433 [label="gini = 0.0\nsamples = 5\nvalue = [5, 0]", fillcolor="#e58139"] ;
431 -> 433 ;
434 [label="gini = 0.0\nsamples = 1\nvalue = [0, 1]", fillcolor="#399de5"] ;
418 -> 434 ;
435 [label="gini = 0.0\nsamples = 17\nvalue = [17, 0]", fillcolor="#e58139"] ;
417 -> 435 ;
436 [label="capital-gain <= 25.0\ngini = 0.32\nsamples = 85\nvalue = [68, 17]", fillcolor="#eca06a"] ;
344 -> 436 ;
437 [label="education-num <= 7.5\ngini = 0.308\nsamples = 84\nvalue = [68, 16]", fillcolor="#eb9f68"] ;
436 -> 437 ;
438 [label="gini = 0.0\nsamples = 1\nvalue = [0, 1]", fillcolor="#399de5"] ;
437 -> 438 ;
439 [label="workclass <= 1.5\ngini = 0.296\nsamples = 83\nvalue = [68, 15]", fillcolor="#eb9d65"] ;
437 -> 439 ;
440 [label="gini = 0.0\nsamples = 1\nvalue = [0, 1]", fillcolor="#399de5"] ;
439 -> 440 ;
441 [label="fnlwgt <= 9403.5\ngini = 0.283\nsamples = 82\nvalue = [68, 14]", fillcolor="#ea9b62"] ;
439 -> 441 ;
442 [label="occupation <= 11.5\ngini = 0.18\nsamples = 50\nvalue = [45, 5]", fillcolor="#e88f4f"] ;
441 -> 442 ;
443 [label="fnlwgt <= 5343.5\ngini = 0.397\nsamples = 11\nvalue = [8, 3]", fillcolor="#efb083"] ;
442 -> 443 ;
444 [label="workclass <= 5.0\ngini = 0.48\nsamples = 5\nvalue = [2, 3]", fillcolor="#bddef6"] ;
443 -> 444 ;
445 [label="hours-per-week <= 51.5\ngini = 0.444\nsamples = 3\nvalue = [2, 1]", fillcolor="#f2c09c"] ;
444 -> 445 ;
446 [label="gini = 0.0\nsamples = 2\nvalue = [2, 0]", fillcolor="#e58139"] ;
445 -> 446 ;
447 [label="gini = 0.0\nsamples = 1\nvalue = [0, 1]", fillcolor="#399de5"] ;
445 -> 447 ;
448 [label="gini = 0.0\nsamples = 2\nvalue = [0, 2]", fillcolor="#399de5"] ;
444 -> 448 ;
449 [label="gini = 0.0\nsamples = 6\nvalue = [6, 0]", fillcolor="#e58139"] ;
443 -> 449 ;
450 [label="fnlwgt <= 6148.0\ngini = 0.097\nsamples = 39\nvalue = [37, 2]", fillcolor="#e68844"] ;
442 -> 450 ;
451 [label="gini = 0.0\nsamples = 25\nvalue = [25, 0]", fillcolor="#e58139"] ;
450 -> 451 ;
452 [label="fnlwgt <= 6522.0\ngini = 0.245\nsamples = 14\nvalue = [12, 2]", fillcolor="#e9965a"] ;
450 -> 452 ;
453 [label="gini = 0.0\nsamples = 1\nvalue = [0, 1]", fillcolor="#399de5"] ;
452 -> 453 ;
454 [label="education <= 13.0\ngini = 0.142\nsamples = 13\nvalue = [12, 1]", fillcolor="#e78c49"] ;
452 -> 454 ;
455 [label="gini = 0.0\nsamples = 11\nvalue = [11, 0]", fillcolor="#e58139"] ;
454 -> 455 ;
456 [label="occupation <= 13.0\ngini = 0.5\nsamples = 2\nvalue = [1, 1]", fillcolor="#ffffff"] ;
454 -> 456 ;
457 [label="gini = 0.0\nsamples = 1\nvalue = [0, 1]", fillcolor="#399de5"] ;
456 -> 457 ;
458 [label="gini = 0.0\nsamples = 1\nvalue = [1, 0]", fillcolor="#e58139"] ;
456 -> 458 ;
459 [label="education-num <= 9.5\ngini = 0.404\nsamples = 32\nvalue = [23, 9]", fillcolor="#efb286"] ;
441 -> 459 ;
460 [label="hours-per-week <= 50.0\ngini = 0.346\nsamples = 27\nvalue = [21, 6]", fillcolor="#eca572"] ;
459 -> 460 ;
461 [label="fnlwgt <= 10871.5\ngini = 0.287\nsamples = 23\nvalue = [19, 4]", fillcolor="#ea9c63"] ;
460 -> 461 ;
462 [label="gini = 0.0\nsamples = 5\nvalue = [5, 0]", fillcolor="#e58139"] ;
461 -> 462 ;
463 [label="fnlwgt <= 10986.5\ngini = 0.346\nsamples = 18\nvalue = [14, 4]", fillcolor="#eca572"] ;
461 -> 463 ;
464 [label="gini = 0.0\nsamples = 1\nvalue = [0, 1]", fillcolor="#399de5"] ;
463 -> 464 ;
465 [label="education <= 13.0\ngini = 0.291\nsamples = 17\nvalue = [14, 3]", fillcolor="#eb9c63"] ;
463 -> 465 ;
466 [label="fnlwgt <= 13597.0\ngini = 0.444\nsamples = 9\nvalue = [6, 3]", fillcolor="#f2c09c"] ;
465 -> 466 ;
467 [label="race <= 2.5\ngini = 0.5\nsamples = 6\nvalue = [3, 3]", fillcolor="#ffffff"] ;
466 -> 467 ;
468 [label="gini = 0.0\nsamples = 1\nvalue = [1, 0]", fillcolor="#e58139"] ;
467 -> 468 ;
469 [label="hours-per-week <= 44.0\ngini = 0.48\nsamples = 5\nvalue = [2, 3]", fillcolor="#bddef6"] ;
467 -> 469 ;
470 [label="gini = 0.0\nsamples = 2\nvalue = [0, 2]", fillcolor="#399de5"] ;
469 -> 470 ;
471 [label="workclass <= 5.0\ngini = 0.444\nsamples = 3\nvalue = [2, 1]", fillcolor="#f2c09c"] ;
469 -> 471 ;
472 [label="gini = 0.0\nsamples = 2\nvalue = [2, 0]", fillcolor="#e58139"] ;
471 -> 472 ;
473 [label="gini = 0.0\nsamples = 1\nvalue = [0, 1]", fillcolor="#399de5"] ;
471 -> 473 ;
474 [label="gini = 0.0\nsamples = 3\nvalue = [3, 0]", fillcolor="#e58139"] ;
466 -> 474 ;
475 [label="gini = 0.0\nsamples = 8\nvalue = [8, 0]", fillcolor="#e58139"] ;
465 -> 475 ;
476 [label="hours-per-week <= 57.5\ngini = 0.5\nsamples = 4\nvalue = [2, 2]", fillcolor="#ffffff"] ;
460 -> 476 ;
477 [label="gini = 0.0\nsamples = 2\nvalue = [0, 2]", fillcolor="#399de5"] ;
476 -> 477 ;
478 [label="gini = 0.0\nsamples = 2\nvalue = [2, 0]", fillcolor="#e58139"] ;
476 -> 478 ;
479 [label="occupation <= 11.5\ngini = 0.48\nsamples = 5\nvalue = [2, 3]", fillcolor="#bddef6"] ;
459 -> 479 ;
480 [label="gini = 0.0\nsamples = 2\nvalue = [0, 2]", fillcolor="#399de5"] ;
479 -> 480 ;
481 [label="fnlwgt <= 9909.5\ngini = 0.444\nsamples = 3\nvalue = [2, 1]", fillcolor="#f2c09c"] ;
479 -> 481 ;
482 [label="gini = 0.0\nsamples = 1\nvalue = [0, 1]", fillcolor="#399de5"] ;
481 -> 482 ;
483 [label="gini = 0.0\nsamples = 2\nvalue = [2, 0]", fillcolor="#e58139"] ;
481 -> 483 ;
484 [label="gini = 0.0\nsamples = 1\nvalue = [0, 1]", fillcolor="#399de5"] ;
436 -> 484 ;
485 [label="capital-loss <= 23.0\ngini = 0.48\nsamples = 5\nvalue = [3, 2]", fillcolor="#f6d5bd"] ;
343 -> 485 ;
486 [label="gini = 0.0\nsamples = 2\nvalue = [0, 2]", fillcolor="#399de5"] ;
485 -> 486 ;
487 [label="gini = 0.0\nsamples = 3\nvalue = [3, 0]", fillcolor="#e58139"] ;
485 -> 487 ;
488 [label="gini = 0.0\nsamples = 1\nvalue = [0, 1]", fillcolor="#399de5"] ;
342 -> 488 ;
489 [label="gini = 0.0\nsamples = 19\nvalue = [19, 0]", fillcolor="#e58139"] ;
341 -> 489 ;
490 [label="fnlwgt <= 14689.0\ngini = 0.378\nsamples = 146\nvalue = [109, 37]", fillcolor="#eeac7c"] ;
338 -> 490 ;
491 [label="native-country <= 22.0\ngini = 0.278\nsamples = 6\nvalue = [1, 5]", fillcolor="#61b1ea"] ;
490 -> 491 ;
492 [label="gini = 0.0\nsamples = 1\nvalue = [1, 0]", fillcolor="#e58139"] ;
491 -> 492 ;
493 [label="gini = 0.0\nsamples = 5\nvalue = [0, 5]", fillcolor="#399de5"] ;
491 -> 493 ;
494 [label="native-country <= 21.5\ngini = 0.353\nsamples = 140\nvalue = [108, 32]", fillcolor="#eda674"] ;
490 -> 494 ;
495 [label="hours-per-week <= 41.5\ngini = 0.469\nsamples = 8\nvalue = [3, 5]", fillcolor="#b0d8f5"] ;
494 -> 495 ;
496 [label="gini = 0.0\nsamples = 4\nvalue = [0, 4]", fillcolor="#399de5"] ;
495 -> 496 ;
497 [label="occupation <= 7.0\ngini = 0.375\nsamples = 4\nvalue = [3, 1]", fillcolor="#eeab7b"] ;
495 -> 497 ;
498 [label="gini = 0.0\nsamples = 1\nvalue = [0, 1]", fillcolor="#399de5"] ;
497 -> 498 ;
499 [label="gini = 0.0\nsamples = 3\nvalue = [3, 0]", fillcolor="#e58139"] ;
497 -> 499 ;
500 [label="age <= 9.5\ngini = 0.325\nsamples = 132\nvalue = [105, 27]", fillcolor="#eca16c"] ;
494 -> 500 ;
501 [label="fnlwgt <= 17139.5\ngini = 0.149\nsamples = 37\nvalue = [34, 3]", fillcolor="#e78c4a"] ;
500 -> 501 ;
502 [label="fnlwgt <= 16873.0\ngini = 0.355\nsamples = 13\nvalue = [10, 3]", fillcolor="#eda774"] ;
501 -> 502 ;
503 [label="occupation <= 2.0\ngini = 0.278\nsamples = 12\nvalue = [10, 2]", fillcolor="#ea9a61"] ;
502 -> 503 ;
504 [label="education <= 13.0\ngini = 0.5\nsamples = 2\nvalue = [1, 1]", fillcolor="#ffffff"] ;
503 -> 504 ;
505 [label="gini = 0.0\nsamples = 1\nvalue = [1, 0]", fillcolor="#e58139"] ;
504 -> 505 ;
506 [label="gini = 0.0\nsamples = 1\nvalue = [0, 1]", fillcolor="#399de5"] ;
504 -> 506 ;
507 [label="fnlwgt <= 15428.0\ngini = 0.18\nsamples = 10\nvalue = [9, 1]", fillcolor="#e88f4f"] ;
503 -> 507 ;
508 [label="occupation <= 5.0\ngini = 0.444\nsamples = 3\nvalue = [2, 1]", fillcolor="#f2c09c"] ;
507 -> 508 ;
509 [label="gini = 0.0\nsamples = 2\nvalue = [2, 0]", fillcolor="#e58139"] ;
508 -> 509 ;
510 [label="gini = 0.0\nsamples = 1\nvalue = [0, 1]", fillcolor="#399de5"] ;
508 -> 510 ;
511 [label="gini = 0.0\nsamples = 7\nvalue = [7, 0]", fillcolor="#e58139"] ;
507 -> 511 ;
512 [label="gini = 0.0\nsamples = 1\nvalue = [0, 1]", fillcolor="#399de5"] ;
502 -> 512 ;
513 [label="gini = 0.0\nsamples = 24\nvalue = [24, 0]", fillcolor="#e58139"] ;
501 -> 513 ;
514 [label="occupation <= 7.5\ngini = 0.378\nsamples = 95\nvalue = [71, 24]", fillcolor="#eeac7c"] ;
500 -> 514 ;
515 [label="fnlwgt <= 20591.0\ngini = 0.303\nsamples = 59\nvalue = [48, 11]", fillcolor="#eb9e66"] ;
514 -> 515 ;
516 [label="fnlwgt <= 20488.5\ngini = 0.357\nsamples = 43\nvalue = [33, 10]", fillcolor="#eda775"] ;
515 -> 516 ;
517 [label="workclass <= 6.5\ngini = 0.337\nsamples = 42\nvalue = [33, 9]", fillcolor="#eca36f"] ;
516 -> 517 ;
518 [label="hours-per-week <= 72.0\ngini = 0.314\nsamples = 41\nvalue = [33, 8]", fillcolor="#eba069"] ;
517 -> 518 ;
519 [label="fnlwgt <= 18284.0\ngini = 0.289\nsamples = 40\nvalue = [33, 7]", fillcolor="#eb9c63"] ;
518 -> 519 ;
520 [label="occupation <= 3.5\ngini = 0.165\nsamples = 22\nvalue = [20, 2]", fillcolor="#e88e4d"] ;
519 -> 520 ;
521 [label="gini = 0.0\nsamples = 15\nvalue = [15, 0]", fillcolor="#e58139"] ;
520 -> 521 ;
522 [label="fnlwgt <= 16047.5\ngini = 0.408\nsamples = 7\nvalue = [5, 2]", fillcolor="#efb388"] ;
520 -> 522 ;
523 [label="gini = 0.0\nsamples = 1\nvalue = [0, 1]", fillcolor="#399de5"] ;
522 -> 523 ;
524 [label="occupation <= 4.5\ngini = 0.278\nsamples = 6\nvalue = [5, 1]", fillcolor="#ea9a61"] ;
522 -> 524 ;
525 [label="workclass <= 3.0\ngini = 0.5\nsamples = 2\nvalue = [1, 1]", fillcolor="#ffffff"] ;
524 -> 525 ;
526 [label="gini = 0.0\nsamples = 1\nvalue = [1, 0]", fillcolor="#e58139"] ;
525 -> 526 ;
527 [label="gini = 0.0\nsamples = 1\nvalue = [0, 1]", fillcolor="#399de5"] ;
525 -> 527 ;
528 [label="gini = 0.0\nsamples = 4\nvalue = [4, 0]", fillcolor="#e58139"] ;
524 -> 528 ;
529 [label="occupation <= 2.0\ngini = 0.401\nsamples = 18\nvalue = [13, 5]", fillcolor="#efb185"] ;
519 -> 529 ;
530 [label="gini = 0.0\nsamples = 2\nvalue = [0, 2]", fillcolor="#399de5"] ;
529 -> 530 ;
531 [label="workclass <= 1.5\ngini = 0.305\nsamples = 16\nvalue = [13, 3]", fillcolor="#eb9e67"] ;
529 -> 531 ;
532 [label="gini = 0.0\nsamples = 1\nvalue = [0, 1]", fillcolor="#399de5"] ;
531 -> 532 ;
533 [label="occupation <= 3.5\ngini = 0.231\nsamples = 15\nvalue = [13, 2]", fillcolor="#e99457"] ;
531 -> 533 ;
534 [label="gini = 0.0\nsamples = 6\nvalue = [6, 0]", fillcolor="#e58139"] ;
533 -> 534 ;
535 [label="fnlwgt <= 19454.5\ngini = 0.346\nsamples = 9\nvalue = [7, 2]", fillcolor="#eca572"] ;
533 -> 535 ;
536 [label="occupation <= 5.0\ngini = 0.5\nsamples = 2\nvalue = [1, 1]", fillcolor="#ffffff"] ;
535 -> 536 ;
537 [label="gini = 0.0\nsamples = 1\nvalue = [0, 1]", fillcolor="#399de5"] ;
536 -> 537 ;
538 [label="gini = 0.0\nsamples = 1\nvalue = [1, 0]", fillcolor="#e58139"] ;
536 -> 538 ;
539 [label="education <= 9.5\ngini = 0.245\nsamples = 7\nvalue = [6, 1]", fillcolor="#e9965a"] ;
535 -> 539 ;
540 [label="fnlwgt <= 20219.5\ngini = 0.5\nsamples = 2\nvalue = [1, 1]", fillcolor="#ffffff"] ;
539 -> 540 ;
541 [label="gini = 0.0\nsamples = 1\nvalue = [1, 0]", fillcolor="#e58139"] ;
540 -> 541 ;
542 [label="gini = 0.0\nsamples = 1\nvalue = [0, 1]", fillcolor="#399de5"] ;
540 -> 542 ;
543 [label="gini = 0.0\nsamples = 5\nvalue = [5, 0]", fillcolor="#e58139"] ;
539 -> 543 ;
544 [label="gini = 0.0\nsamples = 1\nvalue = [0, 1]", fillcolor="#399de5"] ;
518 -> 544 ;
545 [label="gini = 0.0\nsamples = 1\nvalue = [0, 1]", fillcolor="#399de5"] ;
517 -> 545 ;
546 [label="gini = 0.0\nsamples = 1\nvalue = [0, 1]", fillcolor="#399de5"] ;
516 -> 546 ;
547 [label="fnlwgt <= 21366.0\ngini = 0.117\nsamples = 16\nvalue = [15, 1]", fillcolor="#e78946"] ;
515 -> 547 ;
548 [label="gini = 0.0\nsamples = 12\nvalue = [12, 0]", fillcolor="#e58139"] ;
547 -> 548 ;
549 [label="fnlwgt <= 21444.0\ngini = 0.375\nsamples = 4\nvalue = [3, 1]", fillcolor="#eeab7b"] ;
547 -> 549 ;
550 [label="gini = 0.0\nsamples = 1\nvalue = [0, 1]", fillcolor="#399de5"] ;
549 -> 550 ;
551 [label="gini = 0.0\nsamples = 3\nvalue = [3, 0]", fillcolor="#e58139"] ;
549 -> 551 ;
552 [label="fnlwgt <= 19883.5\ngini = 0.461\nsamples = 36\nvalue = [23, 13]", fillcolor="#f4c8a9"] ;
514 -> 552 ;
553 [label="age <= 10.5\ngini = 0.375\nsamples = 28\nvalue = [21, 7]", fillcolor="#eeab7b"] ;
552 -> 553 ;
554 [label="education-num <= 8.5\ngini = 0.496\nsamples = 11\nvalue = [6, 5]", fillcolor="#fbeade"] ;
553 -> 554 ;
555 [label="occupation <= 10.0\ngini = 0.375\nsamples = 8\nvalue = [6, 2]", fillcolor="#eeab7b"] ;
554 -> 555 ;
556 [label="gini = 0.0\nsamples = 1\nvalue = [0, 1]", fillcolor="#399de5"] ;
555 -> 556 ;
557 [label="fnlwgt <= 17189.5\ngini = 0.245\nsamples = 7\nvalue = [6, 1]", fillcolor="#e9965a"] ;
555 -> 557 ;
558 [label="occupation <= 13.0\ngini = 0.444\nsamples = 3\nvalue = [2, 1]", fillcolor="#f2c09c"] ;
557 -> 558 ;
559 [label="gini = 0.0\nsamples = 2\nvalue = [2, 0]", fillcolor="#e58139"] ;
558 -> 559 ;
560 [label="gini = 0.0\nsamples = 1\nvalue = [0, 1]", fillcolor="#399de5"] ;
558 -> 560 ;
561 [label="gini = 0.0\nsamples = 4\nvalue = [4, 0]", fillcolor="#e58139"] ;
557 -> 561 ;
562 [label="gini = 0.0\nsamples = 3\nvalue = [0, 3]", fillcolor="#399de5"] ;
554 -> 562 ;
563 [label="occupation <= 11.5\ngini = 0.208\nsamples = 17\nvalue = [15, 2]", fillcolor="#e89253"] ;
553 -> 563 ;
564 [label="education-num <= 8.5\ngini = 0.408\nsamples = 7\nvalue = [5, 2]", fillcolor="#efb388"] ;
563 -> 564 ;
565 [label="capital-gain <= 32.0\ngini = 0.5\nsamples = 4\nvalue = [2, 2]", fillcolor="#ffffff"] ;
564 -> 565 ;
566 [label="race <= 3.0\ngini = 0.444\nsamples = 3\nvalue = [1, 2]", fillcolor="#9ccef2"] ;
565 -> 566 ;
567 [label="gini = 0.0\nsamples = 1\nvalue = [1, 0]", fillcolor="#e58139"] ;
566 -> 567 ;
568 [label="gini = 0.0\nsamples = 2\nvalue = [0, 2]", fillcolor="#399de5"] ;
566 -> 568 ;
569 [label="gini = 0.0\nsamples = 1\nvalue = [1, 0]", fillcolor="#e58139"] ;
565 -> 569 ;
570 [label="gini = 0.0\nsamples = 3\nvalue = [3, 0]", fillcolor="#e58139"] ;
564 -> 570 ;
571 [label="gini = 0.0\nsamples = 10\nvalue = [10, 0]", fillcolor="#e58139"] ;
563 -> 571 ;
572 [label="occupation <= 10.5\ngini = 0.375\nsamples = 8\nvalue = [2, 6]", fillcolor="#7bbeee"] ;
552 -> 572 ;
573 [label="fnlwgt <= 21406.0\ngini = 0.444\nsamples = 3\nvalue = [2, 1]", fillcolor="#f2c09c"] ;
572 -> 573 ;
574 [label="gini = 0.0\nsamples = 2\nvalue = [2, 0]", fillcolor="#e58139"] ;
573 -> 574 ;
575 [label="gini = 0.0\nsamples = 1\nvalue = [0, 1]", fillcolor="#399de5"] ;
573 -> 575 ;
576 [label="gini = 0.0\nsamples = 5\nvalue = [0, 5]", fillcolor="#399de5"] ;
572 -> 576 ;
577 [label="hours-per-week <= 46.5\ngini = 0.364\nsamples = 1065\nvalue = [810, 255]", fillcolor="#eda977"] ;
279 -> 577 ;
578 [label="education-num <= 8.5\ngini = 0.317\nsamples = 738\nvalue = [592, 146]", fillcolor="#eba06a"] ;
577 -> 578 ;
579 [label="native-country <= 39.5\ngini = 0.269\nsamples = 437\nvalue = [367, 70]", fillcolor="#ea995f"] ;
578 -> 579 ;
580 [label="race <= 3.5\ngini = 0.264\nsamples = 435\nvalue = [367, 68]", fillcolor="#ea985e"] ;
579 -> 580 ;
581 [label="fnlwgt <= 58.5\ngini = 0.075\nsamples = 51\nvalue = [49, 2]", fillcolor="#e68641"] ;
580 -> 581 ;
582 [label="gini = 0.0\nsamples = 1\nvalue = [0, 1]", fillcolor="#399de5"] ;
581 -> 582 ;
583 [label="fnlwgt <= 2590.5\ngini = 0.039\nsamples = 50\nvalue = [49, 1]", fillcolor="#e6843d"] ;
581 -> 583 ;
584 [label="age <= 17.5\ngini = 0.375\nsamples = 4\nvalue = [3, 1]", fillcolor="#eeab7b"] ;
583 -> 584 ;
585 [label="gini = 0.0\nsamples = 1\nvalue = [0, 1]", fillcolor="#399de5"] ;
584 -> 585 ;
586 [label="gini = 0.0\nsamples = 3\nvalue = [3, 0]", fillcolor="#e58139"] ;
584 -> 586 ;
587 [label="gini = 0.0\nsamples = 46\nvalue = [46, 0]", fillcolor="#e58139"] ;
583 -> 587 ;
588 [label="fnlwgt <= 3455.0\ngini = 0.285\nsamples = 384\nvalue = [318, 66]", fillcolor="#ea9b62"] ;
580 -> 588 ;
589 [label="occupation <= 9.0\ngini = 0.105\nsamples = 54\nvalue = [51, 3]", fillcolor="#e78845"] ;
588 -> 589 ;
590 [label="gini = 0.0\nsamples = 45\nvalue = [45, 0]", fillcolor="#e58139"] ;
589 -> 590 ;
591 [label="fnlwgt <= 1990.0\ngini = 0.444\nsamples = 9\nvalue = [6, 3]", fillcolor="#f2c09c"] ;
589 -> 591 ;
592 [label="occupation <= 10.5\ngini = 0.245\nsamples = 7\nvalue = [6, 1]", fillcolor="#e9965a"] ;
591 -> 592 ;
593 [label="gini = 0.0\nsamples = 1\nvalue = [0, 1]", fillcolor="#399de5"] ;
592 -> 593 ;
594 [label="gini = 0.0\nsamples = 6\nvalue = [6, 0]", fillcolor="#e58139"] ;
592 -> 594 ;
595 [label="gini = 0.0\nsamples = 2\nvalue = [0, 2]", fillcolor="#399de5"] ;
591 -> 595 ;
596 [label="fnlwgt <= 3534.0\ngini = 0.309\nsamples = 330\nvalue = [267, 63]", fillcolor="#eb9f68"] ;
588 -> 596 ;
597 [label="gini = 0.0\nsamples = 2\nvalue = [0, 2]", fillcolor="#399de5"] ;
596 -> 597 ;
598 [label="age <= 14.5\ngini = 0.303\nsamples = 328\nvalue = [267, 61]", fillcolor="#eb9e66"] ;
596 -> 598 ;
599 [label="workclass <= 3.0\ngini = 0.372\nsamples = 97\nvalue = [73, 24]", fillcolor="#eeaa7a"] ;
598 -> 599 ;
600 [label="fnlwgt <= 19378.5\ngini = 0.444\nsamples = 9\nvalue = [3, 6]", fillcolor="#9ccef2"] ;
599 -> 600 ;
601 [label="fnlwgt <= 8435.5\ngini = 0.245\nsamples = 7\nvalue = [1, 6]", fillcolor="#5aade9"] ;
600 -> 601 ;
602 [label="gini = 0.0\nsamples = 1\nvalue = [1, 0]", fillcolor="#e58139"] ;
601 -> 602 ;
603 [label="gini = 0.0\nsamples = 6\nvalue = [0, 6]", fillcolor="#399de5"] ;
601 -> 603 ;
604 [label="gini = 0.0\nsamples = 2\nvalue = [2, 0]", fillcolor="#e58139"] ;
600 -> 604 ;
605 [label="hours-per-week <= 40.0\ngini = 0.325\nsamples = 88\nvalue = [70, 18]", fillcolor="#eca16c"] ;
599 -> 605 ;
606 [label="occupation <= 7.5\ngini = 0.364\nsamples = 71\nvalue = [54, 17]", fillcolor="#eda977"] ;
605 -> 606 ;
607 [label="occupation <= 3.5\ngini = 0.423\nsamples = 46\nvalue = [32, 14]", fillcolor="#f0b890"] ;
606 -> 607 ;
608 [label="fnlwgt <= 20893.5\ngini = 0.308\nsamples = 21\nvalue = [17, 4]", fillcolor="#eb9f68"] ;
607 -> 608 ;
609 [label="age <= 13.5\ngini = 0.255\nsamples = 20\nvalue = [17, 3]", fillcolor="#ea975c"] ;
608 -> 609 ;
610 [label="gini = 0.0\nsamples = 9\nvalue = [9, 0]", fillcolor="#e58139"] ;
609 -> 610 ;
611 [label="fnlwgt <= 5608.0\ngini = 0.397\nsamples = 11\nvalue = [8, 3]", fillcolor="#efb083"] ;
609 -> 611 ;
612 [label="gini = 0.0\nsamples = 1\nvalue = [0, 1]", fillcolor="#399de5"] ;
611 -> 612 ;
613 [label="fnlwgt <= 15803.5\ngini = 0.32\nsamples = 10\nvalue = [8, 2]", fillcolor="#eca06a"] ;
611 -> 613 ;
614 [label="gini = 0.0\nsamples = 5\nvalue = [5, 0]", fillcolor="#e58139"] ;
613 -> 614 ;
615 [label="fnlwgt <= 20127.0\ngini = 0.48\nsamples = 5\nvalue = [3, 2]", fillcolor="#f6d5bd"] ;
613 -> 615 ;
616 [label="fnlwgt <= 17295.5\ngini = 0.444\nsamples = 3\nvalue = [1, 2]", fillcolor="#9ccef2"] ;
615 -> 616 ;
617 [label="gini = 0.0\nsamples = 1\nvalue = [0, 1]", fillcolor="#399de5"] ;
616 -> 617 ;
618 [label="fnlwgt <= 18821.5\ngini = 0.5\nsamples = 2\nvalue = [1, 1]", fillcolor="#ffffff"] ;
616 -> 618 ;
619 [label="gini = 0.0\nsamples = 1\nvalue = [1, 0]", fillcolor="#e58139"] ;
618 -> 619 ;
620 [label="gini = 0.0\nsamples = 1\nvalue = [0, 1]", fillcolor="#399de5"] ;
618 -> 620 ;
621 [label="gini = 0.0\nsamples = 2\nvalue = [2, 0]", fillcolor="#e58139"] ;
615 -> 621 ;
622 [label="gini = 0.0\nsamples = 1\nvalue = [0, 1]", fillcolor="#399de5"] ;
608 -> 622 ;
623 [label="occupation <= 4.5\ngini = 0.48\nsamples = 25\nvalue = [15, 10]", fillcolor="#f6d5bd"] ;
607 -> 623 ;
624 [label="fnlwgt <= 15221.0\ngini = 0.32\nsamples = 5\nvalue = [1, 4]", fillcolor="#6ab6ec"] ;
623 -> 624 ;
625 [label="gini = 0.0\nsamples = 3\nvalue = [0, 3]", fillcolor="#399de5"] ;
624 -> 625 ;
626 [label="fnlwgt <= 17688.0\ngini = 0.5\nsamples = 2\nvalue = [1, 1]", fillcolor="#ffffff"] ;
624 -> 626 ;
627 [label="gini = 0.0\nsamples = 1\nvalue = [1, 0]", fillcolor="#e58139"] ;
626 -> 627 ;
628 [label="gini = 0.0\nsamples = 1\nvalue = [0, 1]", fillcolor="#399de5"] ;
626 -> 628 ;
629 [label="fnlwgt <= 8928.5\ngini = 0.42\nsamples = 20\nvalue = [14, 6]", fillcolor="#f0b78e"] ;
623 -> 629 ;
630 [label="occupation <= 5.5\ngini = 0.48\nsamples = 5\nvalue = [2, 3]", fillcolor="#bddef6"] ;
629 -> 630 ;
631 [label="gini = 0.0\nsamples = 1\nvalue = [1, 0]", fillcolor="#e58139"] ;
630 -> 631 ;
632 [label="age <= 13.5\ngini = 0.375\nsamples = 4\nvalue = [1, 3]", fillcolor="#7bbeee"] ;
630 -> 632 ;
633 [label="fnlwgt <= 8380.0\ngini = 0.5\nsamples = 2\nvalue = [1, 1]", fillcolor="#ffffff"] ;
632 -> 633 ;
634 [label="gini = 0.0\nsamples = 1\nvalue = [1, 0]", fillcolor="#e58139"] ;
633 -> 634 ;
635 [label="gini = 0.0\nsamples = 1\nvalue = [0, 1]", fillcolor="#399de5"] ;
633 -> 635 ;
636 [label="gini = 0.0\nsamples = 2\nvalue = [0, 2]", fillcolor="#399de5"] ;
632 -> 636 ;
637 [label="fnlwgt <= 15587.5\ngini = 0.32\nsamples = 15\nvalue = [12, 3]", fillcolor="#eca06a"] ;
629 -> 637 ;
638 [label="fnlwgt <= 13219.5\ngini = 0.397\nsamples = 11\nvalue = [8, 3]", fillcolor="#efb083"] ;
637 -> 638 ;
639 [label="occupation <= 6.5\ngini = 0.32\nsamples = 10\nvalue = [8, 2]", fillcolor="#eca06a"] ;
638 -> 639 ;
640 [label="gini = 0.0\nsamples = 5\nvalue = [5, 0]", fillcolor="#e58139"] ;
639 -> 640 ;
641 [label="fnlwgt <= 11558.0\ngini = 0.48\nsamples = 5\nvalue = [3, 2]", fillcolor="#f6d5bd"] ;
639 -> 641 ;
642 [label="gini = 0.0\nsamples = 2\nvalue = [2, 0]", fillcolor="#e58139"] ;
641 -> 642 ;
643 [label="capital-loss <= 10.5\ngini = 0.444\nsamples = 3\nvalue = [1, 2]", fillcolor="#9ccef2"] ;
641 -> 643 ;
644 [label="gini = 0.0\nsamples = 2\nvalue = [0, 2]", fillcolor="#399de5"] ;
643 -> 644 ;
645 [label="gini = 0.0\nsamples = 1\nvalue = [1, 0]", fillcolor="#e58139"] ;
643 -> 645 ;
646 [label="gini = 0.0\nsamples = 1\nvalue = [0, 1]", fillcolor="#399de5"] ;
638 -> 646 ;
647 [label="gini = 0.0\nsamples = 4\nvalue = [4, 0]", fillcolor="#e58139"] ;
637 -> 647 ;
648 [label="fnlwgt <= 14478.5\ngini = 0.211\nsamples = 25\nvalue = [22, 3]", fillcolor="#e99254"] ;
606 -> 648 ;
649 [label="native-country <= 32.5\ngini = 0.291\nsamples = 17\nvalue = [14, 3]", fillcolor="#eb9c63"] ;
648 -> 649 ;
650 [label="gini = 0.0\nsamples = 1\nvalue = [0, 1]", fillcolor="#399de5"] ;
649 -> 650 ;
651 [label="occupation <= 12.5\ngini = 0.219\nsamples = 16\nvalue = [14, 2]", fillcolor="#e99355"] ;
649 -> 651 ;
652 [label="gini = 0.0\nsamples = 10\nvalue = [10, 0]", fillcolor="#e58139"] ;
651 -> 652 ;
653 [label="occupation <= 13.5\ngini = 0.444\nsamples = 6\nvalue = [4, 2]", fillcolor="#f2c09c"] ;
651 -> 653 ;
654 [label="gini = 0.0\nsamples = 1\nvalue = [0, 1]", fillcolor="#399de5"] ;
653 -> 654 ;
655 [label="fnlwgt <= 6799.0\ngini = 0.32\nsamples = 5\nvalue = [4, 1]", fillcolor="#eca06a"] ;
653 -> 655 ;
656 [label="fnlwgt <= 5952.0\ngini = 0.5\nsamples = 2\nvalue = [1, 1]", fillcolor="#ffffff"] ;
655 -> 656 ;
657 [label="gini = 0.0\nsamples = 1\nvalue = [1, 0]", fillcolor="#e58139"] ;
656 -> 657 ;
658 [label="gini = 0.0\nsamples = 1\nvalue = [0, 1]", fillcolor="#399de5"] ;
656 -> 658 ;
659 [label="gini = 0.0\nsamples = 3\nvalue = [3, 0]", fillcolor="#e58139"] ;
655 -> 659 ;
660 [label="gini = 0.0\nsamples = 8\nvalue = [8, 0]", fillcolor="#e58139"] ;
648 -> 660 ;
661 [label="occupation <= 13.0\ngini = 0.111\nsamples = 17\nvalue = [16, 1]", fillcolor="#e78945"] ;
605 -> 661 ;
662 [label="gini = 0.0\nsamples = 15\nvalue = [15, 0]", fillcolor="#e58139"] ;
661 -> 662 ;
663 [label="fnlwgt <= 13126.5\ngini = 0.5\nsamples = 2\nvalue = [1, 1]", fillcolor="#ffffff"] ;
661 -> 663 ;
664 [label="gini = 0.0\nsamples = 1\nvalue = [1, 0]", fillcolor="#e58139"] ;
663 -> 664 ;
665 [label="gini = 0.0\nsamples = 1\nvalue = [0, 1]", fillcolor="#399de5"] ;
663 -> 665 ;
666 [label="workclass <= 4.5\ngini = 0.269\nsamples = 231\nvalue = [194, 37]", fillcolor="#ea995f"] ;
598 -> 666 ;
667 [label="occupation <= 12.5\ngini = 0.245\nsamples = 196\nvalue = [168, 28]", fillcolor="#e9965a"] ;
666 -> 667 ;
668 [label="occupation <= 11.5\ngini = 0.271\nsamples = 167\nvalue = [140, 27]", fillcolor="#ea995f"] ;
667 -> 668 ;
669 [label="fnlwgt <= 20420.0\ngini = 0.251\nsamples = 156\nvalue = [133, 23]", fillcolor="#e9975b"] ;
668 -> 669 ;
670 [label="fnlwgt <= 20328.5\ngini = 0.265\nsamples = 146\nvalue = [123, 23]", fillcolor="#ea995e"] ;
669 -> 670 ;
671 [label="fnlwgt <= 10824.0\ngini = 0.257\nsamples = 145\nvalue = [123, 22]", fillcolor="#ea985c"] ;
670 -> 671 ;
672 [label="native-country <= 16.0\ngini = 0.192\nsamples = 65\nvalue = [58, 7]", fillcolor="#e89051"] ;
671 -> 672 ;
673 [label="gini = 0.0\nsamples = 1\nvalue = [0, 1]", fillcolor="#399de5"] ;
672 -> 673 ;
674 [label="hours-per-week <= 42.5\ngini = 0.17\nsamples = 64\nvalue = [58, 6]", fillcolor="#e88e4d"] ;
672 -> 674 ;
675 [label="fnlwgt <= 6211.0\ngini = 0.131\nsamples = 57\nvalue = [53, 4]", fillcolor="#e78b48"] ;
674 -> 675 ;
676 [label="fnlwgt <= 6095.5\ngini = 0.278\nsamples = 18\nvalue = [15, 3]", fillcolor="#ea9a61"] ;
675 -> 676 ;
677 [label="fnlwgt <= 4911.5\ngini = 0.208\nsamples = 17\nvalue = [15, 2]", fillcolor="#e89253"] ;
676 -> 677 ;
678 [label="gini = 0.0\nsamples = 9\nvalue = [9, 0]", fillcolor="#e58139"] ;
677 -> 678 ;
679 [label="fnlwgt <= 5107.0\ngini = 0.375\nsamples = 8\nvalue = [6, 2]", fillcolor="#eeab7b"] ;
677 -> 679 ;
680 [label="gini = 0.0\nsamples = 1\nvalue = [0, 1]", fillcolor="#399de5"] ;
679 -> 680 ;
681 [label="age <= 16.5\ngini = 0.245\nsamples = 7\nvalue = [6, 1]", fillcolor="#e9965a"] ;
679 -> 681 ;
682 [label="gini = 0.0\nsamples = 5\nvalue = [5, 0]", fillcolor="#e58139"] ;
681 -> 682 ;
683 [label="occupation <= 1.5\ngini = 0.5\nsamples = 2\nvalue = [1, 1]", fillcolor="#ffffff"] ;
681 -> 683 ;
684 [label="gini = 0.0\nsamples = 1\nvalue = [1, 0]", fillcolor="#e58139"] ;
683 -> 684 ;
685 [label="gini = 0.0\nsamples = 1\nvalue = [0, 1]", fillcolor="#399de5"] ;
683 -> 685 ;
686 [label="gini = 0.0\nsamples = 1\nvalue = [0, 1]", fillcolor="#399de5"] ;
676 -> 686 ;
687 [label="age <= 15.5\ngini = 0.05\nsamples = 39\nvalue = [38, 1]", fillcolor="#e6843e"] ;
675 -> 687 ;
688 [label="occupation <= 5.0\ngini = 0.153\nsamples = 12\nvalue = [11, 1]", fillcolor="#e78c4b"] ;
687 -> 688 ;
689 [label="gini = 0.0\nsamples = 7\nvalue = [7, 0]", fillcolor="#e58139"] ;
688 -> 689 ;
690 [label="occupation <= 8.0\ngini = 0.32\nsamples = 5\nvalue = [4, 1]", fillcolor="#eca06a"] ;
688 -> 690 ;
691 [label="fnlwgt <= 8351.0\ngini = 0.5\nsamples = 2\nvalue = [1, 1]", fillcolor="#ffffff"] ;
690 -> 691 ;
692 [label="gini = 0.0\nsamples = 1\nvalue = [0, 1]", fillcolor="#399de5"] ;
691 -> 692 ;
693 [label="gini = 0.0\nsamples = 1\nvalue = [1, 0]", fillcolor="#e58139"] ;
691 -> 693 ;
694 [label="gini = 0.0\nsamples = 3\nvalue = [3, 0]", fillcolor="#e58139"] ;
690 -> 694 ;
695 [label="gini = 0.0\nsamples = 27\nvalue = [27, 0]", fillcolor="#e58139"] ;
687 -> 695 ;
696 [label="fnlwgt <= 6873.0\ngini = 0.408\nsamples = 7\nvalue = [5, 2]", fillcolor="#efb388"] ;
674 -> 696 ;
697 [label="gini = 0.0\nsamples = 5\nvalue = [5, 0]", fillcolor="#e58139"] ;
696 -> 697 ;
698 [label="gini = 0.0\nsamples = 2\nvalue = [0, 2]", fillcolor="#399de5"] ;
696 -> 698 ;
699 [label="fnlwgt <= 11211.0\ngini = 0.305\nsamples = 80\nvalue = [65, 15]", fillcolor="#eb9e67"] ;
671 -> 699 ;
700 [label="age <= 15.5\ngini = 0.444\nsamples = 6\nvalue = [2, 4]", fillcolor="#9ccef2"] ;
699 -> 700 ;
701 [label="gini = 0.0\nsamples = 1\nvalue = [1, 0]", fillcolor="#e58139"] ;
700 -> 701 ;
702 [label="occupation <= 5.0\ngini = 0.32\nsamples = 5\nvalue = [1, 4]", fillcolor="#6ab6ec"] ;
700 -> 702 ;
703 [label="hours-per-week <= 40.5\ngini = 0.444\nsamples = 3\nvalue = [1, 2]", fillcolor="#9ccef2"] ;
702 -> 703 ;
704 [label="age <= 17.5\ngini = 0.5\nsamples = 2\nvalue = [1, 1]", fillcolor="#ffffff"] ;
703 -> 704 ;
705 [label="gini = 0.0\nsamples = 1\nvalue = [1, 0]", fillcolor="#e58139"] ;
704 -> 705 ;
706 [label="gini = 0.0\nsamples = 1\nvalue = [0, 1]", fillcolor="#399de5"] ;
704 -> 706 ;
707 [label="gini = 0.0\nsamples = 1\nvalue = [0, 1]", fillcolor="#399de5"] ;
703 -> 707 ;
708 [label="gini = 0.0\nsamples = 2\nvalue = [0, 2]", fillcolor="#399de5"] ;
702 -> 708 ;
709 [label="fnlwgt <= 12319.0\ngini = 0.253\nsamples = 74\nvalue = [63, 11]", fillcolor="#ea975c"] ;
699 -> 709 ;
710 [label="gini = 0.0\nsamples = 15\nvalue = [15, 0]", fillcolor="#e58139"] ;
709 -> 710 ;
711 [label="fnlwgt <= 12378.5\ngini = 0.303\nsamples = 59\nvalue = [48, 11]", fillcolor="#eb9e66"] ;
709 -> 711 ;
712 [label="gini = 0.0\nsamples = 1\nvalue = [0, 1]", fillcolor="#399de5"] ;
711 -> 712 ;
713 [label="age <= 16.5\ngini = 0.285\nsamples = 58\nvalue = [48, 10]", fillcolor="#ea9b62"] ;
711 -> 713 ;
714 [label="fnlwgt <= 15016.0\ngini = 0.175\nsamples = 31\nvalue = [28, 3]", fillcolor="#e88e4e"] ;
713 -> 714 ;
715 [label="gini = 0.0\nsamples = 12\nvalue = [12, 0]", fillcolor="#e58139"] ;
714 -> 715 ;
716 [label="fnlwgt <= 16482.5\ngini = 0.266\nsamples = 19\nvalue = [16, 3]", fillcolor="#ea995e"] ;
714 -> 716 ;
717 [label="occupation <= 5.0\ngini = 0.444\nsamples = 3\nvalue = [1, 2]", fillcolor="#9ccef2"] ;
716 -> 717 ;
718 [label="gini = 0.0\nsamples = 2\nvalue = [0, 2]", fillcolor="#399de5"] ;
717 -> 718 ;
719 [label="gini = 0.0\nsamples = 1\nvalue = [1, 0]", fillcolor="#e58139"] ;
717 -> 719 ;
720 [label="occupation <= 6.5\ngini = 0.117\nsamples = 16\nvalue = [15, 1]", fillcolor="#e78946"] ;
716 -> 720 ;
721 [label="gini = 0.0\nsamples = 10\nvalue = [10, 0]", fillcolor="#e58139"] ;
720 -> 721 ;
722 [label="fnlwgt <= 19042.5\ngini = 0.278\nsamples = 6\nvalue = [5, 1]", fillcolor="#ea9a61"] ;
720 -> 722 ;
723 [label="gini = 0.0\nsamples = 5\nvalue = [5, 0]", fillcolor="#e58139"] ;
722 -> 723 ;
724 [label="gini = 0.0\nsamples = 1\nvalue = [0, 1]", fillcolor="#399de5"] ;
722 -> 724 ;
725 [label="fnlwgt <= 18478.0\ngini = 0.384\nsamples = 27\nvalue = [20, 7]", fillcolor="#eead7e"] ;
713 -> 725 ;
726 [label="hours-per-week <= 41.0\ngini = 0.444\nsamples = 21\nvalue = [14, 7]", fillcolor="#f2c09c"] ;
725 -> 726 ;
727 [label="occupation <= 9.0\ngini = 0.484\nsamples = 17\nvalue = [10, 7]", fillcolor="#f7d9c4"] ;
726 -> 727 ;
728 [label="age <= 17.5\ngini = 0.5\nsamples = 14\nvalue = [7, 7]", fillcolor="#ffffff"] ;
727 -> 728 ;
729 [label="fnlwgt <= 15526.0\ngini = 0.32\nsamples = 5\nvalue = [1, 4]", fillcolor="#6ab6ec"] ;
728 -> 729 ;
730 [label="gini = 0.0\nsamples = 2\nvalue = [0, 2]", fillcolor="#399de5"] ;
729 -> 730 ;
731 [label="fnlwgt <= 16548.5\ngini = 0.444\nsamples = 3\nvalue = [1, 2]", fillcolor="#9ccef2"] ;
729 -> 731 ;
732 [label="gini = 0.0\nsamples = 1\nvalue = [1, 0]", fillcolor="#e58139"] ;
731 -> 732 ;
733 [label="gini = 0.0\nsamples = 2\nvalue = [0, 2]", fillcolor="#399de5"] ;
731 -> 733 ;
734 [label="occupation <= 4.0\ngini = 0.444\nsamples = 9\nvalue = [6, 3]", fillcolor="#f2c09c"] ;
728 -> 734 ;
735 [label="fnlwgt <= 13541.5\ngini = 0.5\nsamples = 6\nvalue = [3, 3]", fillcolor="#ffffff"] ;
734 -> 735 ;
736 [label="gini = 0.0\nsamples = 1\nvalue = [1, 0]", fillcolor="#e58139"] ;
735 -> 736 ;
737 [label="fnlwgt <= 14302.5\ngini = 0.48\nsamples = 5\nvalue = [2, 3]", fillcolor="#bddef6"] ;
735 -> 737 ;
738 [label="gini = 0.0\nsamples = 2\nvalue = [0, 2]", fillcolor="#399de5"] ;
737 -> 738 ;
739 [label="fnlwgt <= 15174.0\ngini = 0.444\nsamples = 3\nvalue = [2, 1]", fillcolor="#f2c09c"] ;
737 -> 739 ;
740 [label="gini = 0.0\nsamples = 2\nvalue = [2, 0]", fillcolor="#e58139"] ;
739 -> 740 ;
741 [label="gini = 0.0\nsamples = 1\nvalue = [0, 1]", fillcolor="#399de5"] ;
739 -> 741 ;
742 [label="gini = 0.0\nsamples = 3\nvalue = [3, 0]", fillcolor="#e58139"] ;
734 -> 742 ;
743 [label="gini = 0.0\nsamples = 3\nvalue = [3, 0]", fillcolor="#e58139"] ;
727 -> 743 ;
744 [label="gini = 0.0\nsamples = 4\nvalue = [4, 0]", fillcolor="#e58139"] ;
726 -> 744 ;
745 [label="gini = 0.0\nsamples = 6\nvalue = [6, 0]", fillcolor="#e58139"] ;
725 -> 745 ;
746 [label="gini = 0.0\nsamples = 1\nvalue = [0, 1]", fillcolor="#399de5"] ;
670 -> 746 ;
747 [label="gini = 0.0\nsamples = 10\nvalue = [10, 0]", fillcolor="#e58139"] ;
669 -> 747 ;
748 [label="fnlwgt <= 16459.0\ngini = 0.463\nsamples = 11\nvalue = [7, 4]", fillcolor="#f4c9aa"] ;
668 -> 748 ;
749 [label="capital-gain <= 25.0\ngini = 0.346\nsamples = 9\nvalue = [7, 2]", fillcolor="#eca572"] ;
748 -> 749 ;
750 [label="hours-per-week <= 41.5\ngini = 0.219\nsamples = 8\nvalue = [7, 1]", fillcolor="#e99355"] ;
749 -> 750 ;
751 [label="gini = 0.0\nsamples = 6\nvalue = [6, 0]", fillcolor="#e58139"] ;
750 -> 751 ;
752 [label="fnlwgt <= 6893.5\ngini = 0.5\nsamples = 2\nvalue = [1, 1]", fillcolor="#ffffff"] ;
750 -> 752 ;
753 [label="gini = 0.0\nsamples = 1\nvalue = [1, 0]", fillcolor="#e58139"] ;
752 -> 753 ;
754 [label="gini = 0.0\nsamples = 1\nvalue = [0, 1]", fillcolor="#399de5"] ;
752 -> 754 ;
755 [label="gini = 0.0\nsamples = 1\nvalue = [0, 1]", fillcolor="#399de5"] ;
749 -> 755 ;
756 [label="gini = 0.0\nsamples = 2\nvalue = [0, 2]", fillcolor="#399de5"] ;
748 -> 756 ;
757 [label="hours-per-week <= 24.0\ngini = 0.067\nsamples = 29\nvalue = [28, 1]", fillcolor="#e68640"] ;
667 -> 757 ;
758 [label="fnlwgt <= 12237.5\ngini = 0.5\nsamples = 2\nvalue = [1, 1]", fillcolor="#ffffff"] ;
757 -> 758 ;
759 [label="gini = 0.0\nsamples = 1\nvalue = [1, 0]", fillcolor="#e58139"] ;
758 -> 759 ;
760 [label="gini = 0.0\nsamples = 1\nvalue = [0, 1]", fillcolor="#399de5"] ;
758 -> 760 ;
761 [label="gini = 0.0\nsamples = 27\nvalue = [27, 0]", fillcolor="#e58139"] ;
757 -> 761 ;
762 [label="fnlwgt <= 6561.5\ngini = 0.382\nsamples = 35\nvalue = [26, 9]", fillcolor="#eead7e"] ;
666 -> 762 ;
763 [label="fnlwgt <= 5382.0\ngini = 0.49\nsamples = 7\nvalue = [3, 4]", fillcolor="#cee6f8"] ;
762 -> 763 ;
764 [label="occupation <= 5.5\ngini = 0.48\nsamples = 5\nvalue = [3, 2]", fillcolor="#f6d5bd"] ;
763 -> 764 ;
765 [label="fnlwgt <= 4907.0\ngini = 0.444\nsamples = 3\nvalue = [1, 2]", fillcolor="#9ccef2"] ;
764 -> 765 ;
766 [label="gini = 0.0\nsamples = 2\nvalue = [0, 2]", fillcolor="#399de5"] ;
765 -> 766 ;
767 [label="gini = 0.0\nsamples = 1\nvalue = [1, 0]", fillcolor="#e58139"] ;
765 -> 767 ;
768 [label="gini = 0.0\nsamples = 2\nvalue = [2, 0]", fillcolor="#e58139"] ;
764 -> 768 ;
769 [label="gini = 0.0\nsamples = 2\nvalue = [0, 2]", fillcolor="#399de5"] ;
763 -> 769 ;
770 [label="capital-gain <= 25.0\ngini = 0.293\nsamples = 28\nvalue = [23, 5]", fillcolor="#eb9c64"] ;
762 -> 770 ;
771 [label="workclass <= 6.5\ngini = 0.252\nsamples = 27\nvalue = [23, 4]", fillcolor="#ea975b"] ;
770 -> 771 ;
772 [label="age <= 16.5\ngini = 0.117\nsamples = 16\nvalue = [15, 1]", fillcolor="#e78946"] ;
771 -> 772 ;
773 [label="gini = 0.0\nsamples = 10\nvalue = [10, 0]", fillcolor="#e58139"] ;
772 -> 773 ;
774 [label="occupation <= 3.5\ngini = 0.278\nsamples = 6\nvalue = [5, 1]", fillcolor="#ea9a61"] ;
772 -> 774 ;
775 [label="fnlwgt <= 9990.0\ngini = 0.444\nsamples = 3\nvalue = [2, 1]", fillcolor="#f2c09c"] ;
774 -> 775 ;
776 [label="gini = 0.0\nsamples = 2\nvalue = [2, 0]", fillcolor="#e58139"] ;
775 -> 776 ;
777 [label="gini = 0.0\nsamples = 1\nvalue = [0, 1]", fillcolor="#399de5"] ;
775 -> 777 ;
778 [label="gini = 0.0\nsamples = 3\nvalue = [3, 0]", fillcolor="#e58139"] ;
774 -> 778 ;
779 [label="occupation <= 12.0\ngini = 0.397\nsamples = 11\nvalue = [8, 3]", fillcolor="#efb083"] ;
771 -> 779 ;
780 [label="capital-loss <= 8.5\ngini = 0.32\nsamples = 10\nvalue = [8, 2]", fillcolor="#eca06a"] ;
779 -> 780 ;
781 [label="fnlwgt <= 18645.0\ngini = 0.219\nsamples = 8\nvalue = [7, 1]", fillcolor="#e99355"] ;
780 -> 781 ;
782 [label="gini = 0.0\nsamples = 6\nvalue = [6, 0]", fillcolor="#e58139"] ;
781 -> 782 ;
783 [label="hours-per-week <= 41.5\ngini = 0.5\nsamples = 2\nvalue = [1, 1]", fillcolor="#ffffff"] ;
781 -> 783 ;
784 [label="gini = 0.0\nsamples = 1\nvalue = [0, 1]", fillcolor="#399de5"] ;
783 -> 784 ;
785 [label="gini = 0.0\nsamples = 1\nvalue = [1, 0]", fillcolor="#e58139"] ;
783 -> 785 ;
786 [label="fnlwgt <= 11521.5\ngini = 0.5\nsamples = 2\nvalue = [1, 1]", fillcolor="#ffffff"] ;
780 -> 786 ;
787 [label="gini = 0.0\nsamples = 1\nvalue = [0, 1]", fillcolor="#399de5"] ;
786 -> 787 ;
788 [label="gini = 0.0\nsamples = 1\nvalue = [1, 0]", fillcolor="#e58139"] ;
786 -> 788 ;
789 [label="gini = 0.0\nsamples = 1\nvalue = [0, 1]", fillcolor="#399de5"] ;
779 -> 789 ;
790 [label="gini = 0.0\nsamples = 1\nvalue = [0, 1]", fillcolor="#399de5"] ;
770 -> 790 ;
791 [label="gini = 0.0\nsamples = 2\nvalue = [0, 2]", fillcolor="#399de5"] ;
579 -> 791 ;
792 [label="fnlwgt <= 10455.0\ngini = 0.377\nsamples = 301\nvalue = [225, 76]", fillcolor="#eeac7c"] ;
578 -> 792 ;
793 [label="fnlwgt <= 239.5\ngini = 0.289\nsamples = 154\nvalue = [127, 27]", fillcolor="#eb9c63"] ;
792 -> 793 ;
794 [label="fnlwgt <= 141.5\ngini = 0.444\nsamples = 3\nvalue = [1, 2]", fillcolor="#9ccef2"] ;
793 -> 794 ;
795 [label="gini = 0.0\nsamples = 1\nvalue = [1, 0]", fillcolor="#e58139"] ;
794 -> 795 ;
796 [label="gini = 0.0\nsamples = 2\nvalue = [0, 2]", fillcolor="#399de5"] ;
794 -> 796 ;
797 [label="fnlwgt <= 2538.0\ngini = 0.276\nsamples = 151\nvalue = [126, 25]", fillcolor="#ea9a60"] ;
793 -> 797 ;
798 [label="workclass <= 3.0\ngini = 0.13\nsamples = 43\nvalue = [40, 3]", fillcolor="#e78a48"] ;
797 -> 798 ;
799 [label="education-num <= 10.0\ngini = 0.5\nsamples = 2\nvalue = [1, 1]", fillcolor="#ffffff"] ;
798 -> 799 ;
800 [label="gini = 0.0\nsamples = 1\nvalue = [0, 1]", fillcolor="#399de5"] ;
799 -> 800 ;
801 [label="gini = 0.0\nsamples = 1\nvalue = [1, 0]", fillcolor="#e58139"] ;
799 -> 801 ;
802 [label="age <= 16.5\ngini = 0.093\nsamples = 41\nvalue = [39, 2]", fillcolor="#e68743"] ;
798 -> 802 ;
803 [label="gini = 0.0\nsamples = 24\nvalue = [24, 0]", fillcolor="#e58139"] ;
802 -> 803 ;
804 [label="fnlwgt <= 819.5\ngini = 0.208\nsamples = 17\nvalue = [15, 2]", fillcolor="#e89253"] ;
802 -> 804 ;
805 [label="gini = 0.0\nsamples = 7\nvalue = [7, 0]", fillcolor="#e58139"] ;
804 -> 805 ;
806 [label="fnlwgt <= 1095.5\ngini = 0.32\nsamples = 10\nvalue = [8, 2]", fillcolor="#eca06a"] ;
804 -> 806 ;
807 [label="capital-gain <= 38.5\ngini = 0.444\nsamples = 3\nvalue = [1, 2]", fillcolor="#9ccef2"] ;
806 -> 807 ;
808 [label="gini = 0.0\nsamples = 2\nvalue = [0, 2]", fillcolor="#399de5"] ;
807 -> 808 ;
809 [label="gini = 0.0\nsamples = 1\nvalue = [1, 0]", fillcolor="#e58139"] ;
807 -> 809 ;
810 [label="gini = 0.0\nsamples = 7\nvalue = [7, 0]", fillcolor="#e58139"] ;
806 -> 810 ;
811 [label="fnlwgt <= 2578.0\ngini = 0.324\nsamples = 108\nvalue = [86, 22]", fillcolor="#eca16c"] ;
797 -> 811 ;
812 [label="gini = 0.0\nsamples = 1\nvalue = [0, 1]", fillcolor="#399de5"] ;
811 -> 812 ;
813 [label="occupation <= 3.5\ngini = 0.315\nsamples = 107\nvalue = [86, 21]", fillcolor="#eba069"] ;
811 -> 813 ;
814 [label="age <= 16.5\ngini = 0.165\nsamples = 33\nvalue = [30, 3]", fillcolor="#e88e4d"] ;
813 -> 814 ;
815 [label="education-num <= 10.5\ngini = 0.077\nsamples = 25\nvalue = [24, 1]", fillcolor="#e68641"] ;
814 -> 815 ;
816 [label="gini = 0.0\nsamples = 19\nvalue = [19, 0]", fillcolor="#e58139"] ;
815 -> 816 ;
817 [label="occupation <= 2.0\ngini = 0.278\nsamples = 6\nvalue = [5, 1]", fillcolor="#ea9a61"] ;
815 -> 817 ;
818 [label="fnlwgt <= 7138.5\ngini = 0.5\nsamples = 2\nvalue = [1, 1]", fillcolor="#ffffff"] ;
817 -> 818 ;
819 [label="gini = 0.0\nsamples = 1\nvalue = [0, 1]", fillcolor="#399de5"] ;
818 -> 819 ;
820 [label="gini = 0.0\nsamples = 1\nvalue = [1, 0]", fillcolor="#e58139"] ;
818 -> 820 ;
821 [label="gini = 0.0\nsamples = 4\nvalue = [4, 0]", fillcolor="#e58139"] ;
817 -> 821 ;
822 [label="age <= 17.5\ngini = 0.375\nsamples = 8\nvalue = [6, 2]", fillcolor="#eeab7b"] ;
814 -> 822 ;
823 [label="fnlwgt <= 6581.5\ngini = 0.444\nsamples = 3\nvalue = [1, 2]", fillcolor="#9ccef2"] ;
822 -> 823 ;
824 [label="gini = 0.0\nsamples = 1\nvalue = [1, 0]", fillcolor="#e58139"] ;
823 -> 824 ;
825 [label="gini = 0.0\nsamples = 2\nvalue = [0, 2]", fillcolor="#399de5"] ;
823 -> 825 ;
826 [label="gini = 0.0\nsamples = 5\nvalue = [5, 0]", fillcolor="#e58139"] ;
822 -> 826 ;
827 [label="fnlwgt <= 6173.0\ngini = 0.368\nsamples = 74\nvalue = [56, 18]", fillcolor="#edaa79"] ;
813 -> 827 ;
828 [label="fnlwgt <= 4992.0\ngini = 0.444\nsamples = 39\nvalue = [26, 13]", fillcolor="#f2c09c"] ;
827 -> 828 ;
829 [label="fnlwgt <= 3385.5\ngini = 0.355\nsamples = 26\nvalue = [20, 6]", fillcolor="#eda774"] ;
828 -> 829 ;
830 [label="age <= 15.5\ngini = 0.494\nsamples = 9\nvalue = [5, 4]", fillcolor="#fae6d7"] ;
829 -> 830 ;
831 [label="fnlwgt <= 2703.5\ngini = 0.444\nsamples = 6\nvalue = [2, 4]", fillcolor="#9ccef2"] ;
830 -> 831 ;
832 [label="gini = 0.0\nsamples = 2\nvalue = [2, 0]", fillcolor="#e58139"] ;
831 -> 832 ;
833 [label="gini = 0.0\nsamples = 4\nvalue = [0, 4]", fillcolor="#399de5"] ;
831 -> 833 ;
834 [label="gini = 0.0\nsamples = 3\nvalue = [3, 0]", fillcolor="#e58139"] ;
830 -> 834 ;
835 [label="age <= 16.5\ngini = 0.208\nsamples = 17\nvalue = [15, 2]", fillcolor="#e89253"] ;
829 -> 835 ;
836 [label="gini = 0.0\nsamples = 11\nvalue = [11, 0]", fillcolor="#e58139"] ;
835 -> 836 ;
837 [label="occupation <= 12.5\ngini = 0.444\nsamples = 6\nvalue = [4, 2]", fillcolor="#f2c09c"] ;
835 -> 837 ;
838 [label="fnlwgt <= 4575.0\ngini = 0.32\nsamples = 5\nvalue = [4, 1]", fillcolor="#eca06a"] ;
837 -> 838 ;
839 [label="gini = 0.0\nsamples = 2\nvalue = [2, 0]", fillcolor="#e58139"] ;
838 -> 839 ;
840 [label="age <= 17.5\ngini = 0.444\nsamples = 3\nvalue = [2, 1]", fillcolor="#f2c09c"] ;
838 -> 840 ;
841 [label="gini = 0.0\nsamples = 1\nvalue = [0, 1]", fillcolor="#399de5"] ;
840 -> 841 ;
842 [label="gini = 0.0\nsamples = 2\nvalue = [2, 0]", fillcolor="#e58139"] ;
840 -> 842 ;
843 [label="gini = 0.0\nsamples = 1\nvalue = [0, 1]", fillcolor="#399de5"] ;
837 -> 843 ;
844 [label="age <= 17.5\ngini = 0.497\nsamples = 13\nvalue = [6, 7]", fillcolor="#e3f1fb"] ;
828 -> 844 ;
845 [label="fnlwgt <= 6045.0\ngini = 0.42\nsamples = 10\nvalue = [3, 7]", fillcolor="#8ec7f0"] ;
844 -> 845 ;
846 [label="occupation <= 7.0\ngini = 0.245\nsamples = 7\nvalue = [1, 6]", fillcolor="#5aade9"] ;
845 -> 846 ;
847 [label="occupation <= 5.0\ngini = 0.444\nsamples = 3\nvalue = [1, 2]", fillcolor="#9ccef2"] ;
846 -> 847 ;
848 [label="gini = 0.0\nsamples = 2\nvalue = [0, 2]", fillcolor="#399de5"] ;
847 -> 848 ;
849 [label="gini = 0.0\nsamples = 1\nvalue = [1, 0]", fillcolor="#e58139"] ;
847 -> 849 ;
850 [label="gini = 0.0\nsamples = 4\nvalue = [0, 4]", fillcolor="#399de5"] ;
846 -> 850 ;
851 [label="hours-per-week <= 38.0\ngini = 0.444\nsamples = 3\nvalue = [2, 1]", fillcolor="#f2c09c"] ;
845 -> 851 ;
852 [label="gini = 0.0\nsamples = 1\nvalue = [0, 1]", fillcolor="#399de5"] ;
851 -> 852 ;
853 [label="gini = 0.0\nsamples = 2\nvalue = [2, 0]", fillcolor="#e58139"] ;
851 -> 853 ;
854 [label="gini = 0.0\nsamples = 3\nvalue = [3, 0]", fillcolor="#e58139"] ;
844 -> 854 ;
855 [label="hours-per-week <= 29.0\ngini = 0.245\nsamples = 35\nvalue = [30, 5]", fillcolor="#e9965a"] ;
827 -> 855 ;
856 [label="gini = 0.0\nsamples = 1\nvalue = [0, 1]", fillcolor="#399de5"] ;
855 -> 856 ;
857 [label="fnlwgt <= 7749.5\ngini = 0.208\nsamples = 34\nvalue = [30, 4]", fillcolor="#e89253"] ;
855 -> 857 ;
858 [label="gini = 0.0\nsamples = 13\nvalue = [13, 0]", fillcolor="#e58139"] ;
857 -> 858 ;
859 [label="fnlwgt <= 7895.0\ngini = 0.308\nsamples = 21\nvalue = [17, 4]", fillcolor="#eb9f68"] ;
857 -> 859 ;
860 [label="gini = 0.0\nsamples = 2\nvalue = [0, 2]", fillcolor="#399de5"] ;
859 -> 860 ;
861 [label="age <= 15.5\ngini = 0.188\nsamples = 19\nvalue = [17, 2]", fillcolor="#e89050"] ;
859 -> 861 ;
862 [label="education-num <= 9.5\ngini = 0.375\nsamples = 8\nvalue = [6, 2]", fillcolor="#eeab7b"] ;
861 -> 862 ;
863 [label="fnlwgt <= 8077.0\ngini = 0.245\nsamples = 7\nvalue = [6, 1]", fillcolor="#e9965a"] ;
862 -> 863 ;
864 [label="gini = 0.0\nsamples = 1\nvalue = [0, 1]", fillcolor="#399de5"] ;
863 -> 864 ;
865 [label="gini = 0.0\nsamples = 6\nvalue = [6, 0]", fillcolor="#e58139"] ;
863 -> 865 ;
866 [label="gini = 0.0\nsamples = 1\nvalue = [0, 1]", fillcolor="#399de5"] ;
862 -> 866 ;
867 [label="gini = 0.0\nsamples = 11\nvalue = [11, 0]", fillcolor="#e58139"] ;
861 -> 867 ;
868 [label="fnlwgt <= 13417.5\ngini = 0.444\nsamples = 147\nvalue = [98, 49]", fillcolor="#f2c09c"] ;
792 -> 868 ;
869 [label="fnlwgt <= 12633.5\ngini = 0.493\nsamples = 41\nvalue = [18, 23]", fillcolor="#d4eaf9"] ;
868 -> 869 ;
870 [label="workclass <= 4.5\ngini = 0.498\nsamples = 32\nvalue = [17, 15]", fillcolor="#fcf0e8"] ;
869 -> 870 ;
871 [label="hours-per-week <= 43.5\ngini = 0.499\nsamples = 29\nvalue = [14, 15]", fillcolor="#f2f8fd"] ;
870 -> 871 ;
872 [label="occupation <= 12.5\ngini = 0.497\nsamples = 26\nvalue = [14, 12]", fillcolor="#fbede3"] ;
871 -> 872 ;
873 [label="fnlwgt <= 12315.0\ngini = 0.486\nsamples = 24\nvalue = [14, 10]", fillcolor="#f8dbc6"] ;
872 -> 873 ;
874 [label="hours-per-week <= 38.0\ngini = 0.5\nsamples = 20\nvalue = [10, 10]", fillcolor="#ffffff"] ;
873 -> 874 ;
875 [label="gini = 0.0\nsamples = 2\nvalue = [2, 0]", fillcolor="#e58139"] ;
874 -> 875 ;
876 [label="occupation <= 6.0\ngini = 0.494\nsamples = 18\nvalue = [8, 10]", fillcolor="#d7ebfa"] ;
874 -> 876 ;
877 [label="education-num <= 10.0\ngini = 0.42\nsamples = 10\nvalue = [3, 7]", fillcolor="#8ec7f0"] ;
876 -> 877 ;
878 [label="capital-loss <= 18.5\ngini = 0.245\nsamples = 7\nvalue = [1, 6]", fillcolor="#5aade9"] ;
877 -> 878 ;
879 [label="gini = 0.0\nsamples = 6\nvalue = [0, 6]", fillcolor="#399de5"] ;
878 -> 879 ;
880 [label="gini = 0.0\nsamples = 1\nvalue = [1, 0]", fillcolor="#e58139"] ;
878 -> 880 ;
881 [label="age <= 17.5\ngini = 0.444\nsamples = 3\nvalue = [2, 1]", fillcolor="#f2c09c"] ;
877 -> 881 ;
882 [label="gini = 0.0\nsamples = 2\nvalue = [2, 0]", fillcolor="#e58139"] ;
881 -> 882 ;
883 [label="gini = 0.0\nsamples = 1\nvalue = [0, 1]", fillcolor="#399de5"] ;
881 -> 883 ;
884 [label="occupation <= 10.5\ngini = 0.469\nsamples = 8\nvalue = [5, 3]", fillcolor="#f5cdb0"] ;
876 -> 884 ;
885 [label="gini = 0.0\nsamples = 4\nvalue = [4, 0]", fillcolor="#e58139"] ;
884 -> 885 ;
886 [label="education <= 11.5\ngini = 0.375\nsamples = 4\nvalue = [1, 3]", fillcolor="#7bbeee"] ;
884 -> 886 ;
887 [label="education-num <= 10.5\ngini = 0.5\nsamples = 2\nvalue = [1, 1]", fillcolor="#ffffff"] ;
886 -> 887 ;
888 [label="gini = 0.0\nsamples = 1\nvalue = [1, 0]", fillcolor="#e58139"] ;
887 -> 888 ;
889 [label="gini = 0.0\nsamples = 1\nvalue = [0, 1]", fillcolor="#399de5"] ;
887 -> 889 ;
890 [label="gini = 0.0\nsamples = 2\nvalue = [0, 2]", fillcolor="#399de5"] ;
886 -> 890 ;
891 [label="gini = 0.0\nsamples = 4\nvalue = [4, 0]", fillcolor="#e58139"] ;
873 -> 891 ;
892 [label="gini = 0.0\nsamples = 2\nvalue = [0, 2]", fillcolor="#399de5"] ;
872 -> 892 ;
893 [label="gini = 0.0\nsamples = 3\nvalue = [0, 3]", fillcolor="#399de5"] ;
871 -> 893 ;
894 [label="gini = 0.0\nsamples = 3\nvalue = [3, 0]", fillcolor="#e58139"] ;
870 -> 894 ;
895 [label="occupation <= 13.5\ngini = 0.198\nsamples = 9\nvalue = [1, 8]", fillcolor="#52a9e8"] ;
869 -> 895 ;
896 [label="gini = 0.0\nsamples = 8\nvalue = [0, 8]", fillcolor="#399de5"] ;
895 -> 896 ;
897 [label="gini = 0.0\nsamples = 1\nvalue = [1, 0]", fillcolor="#e58139"] ;
895 -> 897 ;
898 [label="hours-per-week <= 38.5\ngini = 0.37\nsamples = 106\nvalue = [80, 26]", fillcolor="#edaa79"] ;
868 -> 898 ;
899 [label="gini = 0.0\nsamples = 17\nvalue = [17, 0]", fillcolor="#e58139"] ;
898 -> 899 ;
900 [label="race <= 3.5\ngini = 0.414\nsamples = 89\nvalue = [63, 26]", fillcolor="#f0b58b"] ;
898 -> 900 ;
901 [label="fnlwgt <= 20391.5\ngini = 0.469\nsamples = 8\nvalue = [3, 5]", fillcolor="#b0d8f5"] ;
900 -> 901 ;
902 [label="fnlwgt <= 16216.0\ngini = 0.408\nsamples = 7\nvalue = [2, 5]", fillcolor="#88c4ef"] ;
901 -> 902 ;
903 [label="age <= 16.5\ngini = 0.444\nsamples = 3\nvalue = [2, 1]", fillcolor="#f2c09c"] ;
902 -> 903 ;
904 [label="gini = 0.0\nsamples = 2\nvalue = [2, 0]", fillcolor="#e58139"] ;
903 -> 904 ;
905 [label="gini = 0.0\nsamples = 1\nvalue = [0, 1]", fillcolor="#399de5"] ;
903 -> 905 ;
906 [label="gini = 0.0\nsamples = 4\nvalue = [0, 4]", fillcolor="#399de5"] ;
902 -> 906 ;
907 [label="gini = 0.0\nsamples = 1\nvalue = [1, 0]", fillcolor="#e58139"] ;
901 -> 907 ;
908 [label="native-country <= 5.5\ngini = 0.384\nsamples = 81\nvalue = [60, 21]", fillcolor="#eead7e"] ;
900 -> 908 ;
909 [label="occupation <= 5.5\ngini = 0.444\nsamples = 3\nvalue = [1, 2]", fillcolor="#9ccef2"] ;
908 -> 909 ;
910 [label="gini = 0.0\nsamples = 2\nvalue = [0, 2]", fillcolor="#399de5"] ;
909 -> 910 ;
911 [label="gini = 0.0\nsamples = 1\nvalue = [1, 0]", fillcolor="#e58139"] ;
909 -> 911 ;
912 [label="fnlwgt <= 19717.0\ngini = 0.369\nsamples = 78\nvalue = [59, 19]", fillcolor="#edaa79"] ;
908 -> 912 ;
913 [label="fnlwgt <= 15708.5\ngini = 0.324\nsamples = 64\nvalue = [51, 13]", fillcolor="#eca16b"] ;
912 -> 913 ;
914 [label="education <= 7.5\ngini = 0.444\nsamples = 24\nvalue = [16, 8]", fillcolor="#f2c09c"] ;
913 -> 914 ;
915 [label="gini = 0.0\nsamples = 2\nvalue = [0, 2]", fillcolor="#399de5"] ;
914 -> 915 ;
916 [label="fnlwgt <= 15520.5\ngini = 0.397\nsamples = 22\nvalue = [16, 6]", fillcolor="#efb083"] ;
914 -> 916 ;
917 [label="age <= 13.5\ngini = 0.363\nsamples = 21\nvalue = [16, 5]", fillcolor="#eda877"] ;
916 -> 917 ;
918 [label="fnlwgt <= 14004.0\ngini = 0.5\nsamples = 4\nvalue = [2, 2]", fillcolor="#ffffff"] ;
917 -> 918 ;
919 [label="gini = 0.0\nsamples = 2\nvalue = [2, 0]", fillcolor="#e58139"] ;
918 -> 919 ;
920 [label="gini = 0.0\nsamples = 2\nvalue = [0, 2]", fillcolor="#399de5"] ;
918 -> 920 ;
921 [label="age <= 16.0\ngini = 0.291\nsamples = 17\nvalue = [14, 3]", fillcolor="#eb9c63"] ;
917 -> 921 ;
922 [label="gini = 0.0\nsamples = 8\nvalue = [8, 0]", fillcolor="#e58139"] ;
921 -> 922 ;
923 [label="fnlwgt <= 14920.0\ngini = 0.444\nsamples = 9\nvalue = [6, 3]", fillcolor="#f2c09c"] ;
921 -> 923 ;
924 [label="capital-loss <= 18.5\ngini = 0.375\nsamples = 4\nvalue = [1, 3]", fillcolor="#7bbeee"] ;
923 -> 924 ;
925 [label="gini = 0.0\nsamples = 3\nvalue = [0, 3]", fillcolor="#399de5"] ;
924 -> 925 ;
926 [label="gini = 0.0\nsamples = 1\nvalue = [1, 0]", fillcolor="#e58139"] ;
924 -> 926 ;
927 [label="gini = 0.0\nsamples = 5\nvalue = [5, 0]", fillcolor="#e58139"] ;
923 -> 927 ;
928 [label="gini = 0.0\nsamples = 1\nvalue = [0, 1]", fillcolor="#399de5"] ;
916 -> 928 ;
929 [label="workclass <= 6.5\ngini = 0.219\nsamples = 40\nvalue = [35, 5]", fillcolor="#e99355"] ;
913 -> 929 ;
930 [label="capital-gain <= 67.0\ngini = 0.184\nsamples = 39\nvalue = [35, 4]", fillcolor="#e88f50"] ;
929 -> 930 ;
931 [label="fnlwgt <= 17081.0\ngini = 0.149\nsamples = 37\nvalue = [34, 3]", fillcolor="#e78c4a"] ;
930 -> 931 ;
932 [label="gini = 0.0\nsamples = 14\nvalue = [14, 0]", fillcolor="#e58139"] ;
931 -> 932 ;
933 [label="fnlwgt <= 17299.5\ngini = 0.227\nsamples = 23\nvalue = [20, 3]", fillcolor="#e99457"] ;
931 -> 933 ;
934 [label="gini = 0.0\nsamples = 1\nvalue = [0, 1]", fillcolor="#399de5"] ;
933 -> 934 ;
935 [label="fnlwgt <= 18526.5\ngini = 0.165\nsamples = 22\nvalue = [20, 2]", fillcolor="#e88e4d"] ;
933 -> 935 ;
936 [label="fnlwgt <= 18368.0\ngini = 0.278\nsamples = 12\nvalue = [10, 2]", fillcolor="#ea9a61"] ;
935 -> 936 ;
937 [label="age <= 16.5\ngini = 0.165\nsamples = 11\nvalue = [10, 1]", fillcolor="#e88e4d"] ;
936 -> 937 ;
938 [label="gini = 0.0\nsamples = 7\nvalue = [7, 0]", fillcolor="#e58139"] ;
937 -> 938 ;
939 [label="occupation <= 11.0\ngini = 0.375\nsamples = 4\nvalue = [3, 1]", fillcolor="#eeab7b"] ;
937 -> 939 ;
940 [label="gini = 0.0\nsamples = 1\nvalue = [0, 1]", fillcolor="#399de5"] ;
939 -> 940 ;
941 [label="gini = 0.0\nsamples = 3\nvalue = [3, 0]", fillcolor="#e58139"] ;
939 -> 941 ;
942 [label="gini = 0.0\nsamples = 1\nvalue = [0, 1]", fillcolor="#399de5"] ;
936 -> 942 ;
943 [label="gini = 0.0\nsamples = 10\nvalue = [10, 0]", fillcolor="#e58139"] ;
935 -> 943 ;
944 [label="occupation <= 7.0\ngini = 0.5\nsamples = 2\nvalue = [1, 1]", fillcolor="#ffffff"] ;
930 -> 944 ;
945 [label="gini = 0.0\nsamples = 1\nvalue = [0, 1]", fillcolor="#399de5"] ;
944 -> 945 ;
946 [label="gini = 0.0\nsamples = 1\nvalue = [1, 0]", fillcolor="#e58139"] ;
944 -> 946 ;
947 [label="gini = 0.0\nsamples = 1\nvalue = [0, 1]", fillcolor="#399de5"] ;
929 -> 947 ;
948 [label="fnlwgt <= 20030.0\ngini = 0.49\nsamples = 14\nvalue = [8, 6]", fillcolor="#f8e0ce"] ;
912 -> 948 ;
949 [label="gini = 0.0\nsamples = 4\nvalue = [0, 4]", fillcolor="#399de5"] ;
948 -> 949 ;
950 [label="native-country <= 34.0\ngini = 0.32\nsamples = 10\nvalue = [8, 2]", fillcolor="#eca06a"] ;
948 -> 950 ;
951 [label="gini = 0.0\nsamples = 1\nvalue = [0, 1]", fillcolor="#399de5"] ;
950 -> 951 ;
952 [label="occupation <= 13.0\ngini = 0.198\nsamples = 9\nvalue = [8, 1]", fillcolor="#e89152"] ;
950 -> 952 ;
953 [label="gini = 0.0\nsamples = 8\nvalue = [8, 0]", fillcolor="#e58139"] ;
952 -> 953 ;
954 [label="gini = 0.0\nsamples = 1\nvalue = [0, 1]", fillcolor="#399de5"] ;
952 -> 954 ;
955 [label="native-country <= 24.5\ngini = 0.444\nsamples = 327\nvalue = [218, 109]", fillcolor="#f2c09c"] ;
577 -> 955 ;
956 [label="hours-per-week <= 57.0\ngini = 0.484\nsamples = 17\nvalue = [7, 10]", fillcolor="#c4e2f7"] ;
955 -> 956 ;
957 [label="age <= 13.5\ngini = 0.375\nsamples = 12\nvalue = [3, 9]", fillcolor="#7bbeee"] ;
956 -> 957 ;
958 [label="gini = 0.0\nsamples = 1\nvalue = [1, 0]", fillcolor="#e58139"] ;
957 -> 958 ;
959 [label="occupation <= 2.0\ngini = 0.298\nsamples = 11\nvalue = [2, 9]", fillcolor="#65b3eb"] ;
957 -> 959 ;
960 [label="gini = 0.0\nsamples = 1\nvalue = [1, 0]", fillcolor="#e58139"] ;
959 -> 960 ;
961 [label="fnlwgt <= 17554.0\ngini = 0.18\nsamples = 10\nvalue = [1, 9]", fillcolor="#4fa8e8"] ;
959 -> 961 ;
962 [label="gini = 0.0\nsamples = 7\nvalue = [0, 7]", fillcolor="#399de5"] ;
961 -> 962 ;
963 [label="fnlwgt <= 19122.0\ngini = 0.444\nsamples = 3\nvalue = [1, 2]", fillcolor="#9ccef2"] ;
961 -> 963 ;
964 [label="gini = 0.0\nsamples = 1\nvalue = [1, 0]", fillcolor="#e58139"] ;
963 -> 964 ;
965 [label="gini = 0.0\nsamples = 2\nvalue = [0, 2]", fillcolor="#399de5"] ;
963 -> 965 ;
966 [label="fnlwgt <= 4947.0\ngini = 0.32\nsamples = 5\nvalue = [4, 1]", fillcolor="#eca06a"] ;
956 -> 966 ;
967 [label="gini = 0.0\nsamples = 1\nvalue = [0, 1]", fillcolor="#399de5"] ;
966 -> 967 ;
968 [label="gini = 0.0\nsamples = 4\nvalue = [4, 0]", fillcolor="#e58139"] ;
966 -> 968 ;
969 [label="fnlwgt <= 2948.5\ngini = 0.435\nsamples = 310\nvalue = [211, 99]", fillcolor="#f1bc96"] ;
955 -> 969 ;
970 [label="fnlwgt <= 783.5\ngini = 0.315\nsamples = 51\nvalue = [41, 10]", fillcolor="#eba069"] ;
969 -> 970 ;
971 [label="fnlwgt <= 654.5\ngini = 0.48\nsamples = 15\nvalue = [9, 6]", fillcolor="#f6d5bd"] ;
970 -> 971 ;
972 [label="occupation <= 13.0\ngini = 0.375\nsamples = 12\nvalue = [9, 3]", fillcolor="#eeab7b"] ;
971 -> 972 ;
973 [label="fnlwgt <= 212.5\ngini = 0.298\nsamples = 11\nvalue = [9, 2]", fillcolor="#eb9d65"] ;
972 -> 973 ;
974 [label="fnlwgt <= 153.5\ngini = 0.5\nsamples = 2\nvalue = [1, 1]", fillcolor="#ffffff"] ;
973 -> 974 ;
975 [label="gini = 0.0\nsamples = 1\nvalue = [1, 0]", fillcolor="#e58139"] ;
974 -> 975 ;
976 [label="gini = 0.0\nsamples = 1\nvalue = [0, 1]", fillcolor="#399de5"] ;
974 -> 976 ;
977 [label="workclass <= 5.5\ngini = 0.198\nsamples = 9\nvalue = [8, 1]", fillcolor="#e89152"] ;
973 -> 977 ;
978 [label="gini = 0.0\nsamples = 6\nvalue = [6, 0]", fillcolor="#e58139"] ;
977 -> 978 ;
979 [label="age <= 16.0\ngini = 0.444\nsamples = 3\nvalue = [2, 1]", fillcolor="#f2c09c"] ;
977 -> 979 ;
980 [label="gini = 0.0\nsamples = 2\nvalue = [2, 0]", fillcolor="#e58139"] ;
979 -> 980 ;
981 [label="gini = 0.0\nsamples = 1\nvalue = [0, 1]", fillcolor="#399de5"] ;
979 -> 981 ;
982 [label="gini = 0.0\nsamples = 1\nvalue = [0, 1]", fillcolor="#399de5"] ;
972 -> 982 ;
983 [label="gini = 0.0\nsamples = 3\nvalue = [0, 3]", fillcolor="#399de5"] ;
971 -> 983 ;
984 [label="occupation <= 11.5\ngini = 0.198\nsamples = 36\nvalue = [32, 4]", fillcolor="#e89152"] ;
970 -> 984 ;
985 [label="age <= 16.0\ngini = 0.133\nsamples = 28\nvalue = [26, 2]", fillcolor="#e78b48"] ;
984 -> 985 ;
986 [label="gini = 0.0\nsamples = 13\nvalue = [13, 0]", fillcolor="#e58139"] ;
985 -> 986 ;
987 [label="fnlwgt <= 1781.0\ngini = 0.231\nsamples = 15\nvalue = [13, 2]", fillcolor="#e99457"] ;
985 -> 987 ;
988 [label="gini = 0.0\nsamples = 6\nvalue = [6, 0]", fillcolor="#e58139"] ;
987 -> 988 ;
989 [label="fnlwgt <= 1909.5\ngini = 0.346\nsamples = 9\nvalue = [7, 2]", fillcolor="#eca572"] ;
987 -> 989 ;
